{"learner":{"attributes":{},"feature_names":[],"feature_types":[],"gradient_booster":{"model":{"cats":{"enc":[],"feature_segments":[],"sorted_idx":[]},"gbtree_model_param":{"num_parallel_tree":"1","num_trees":"150"},"iteration_indptr":[0,1,2,3,4,5,6,7,8,9,10,11,12,13,14,15,16,17,18,19,20,21,22,23,24,25,26,27,28,29,30,31,32,33,34,35,36,37,38,39,40,41,42,43,44,45,46,47,48,49,50,51,52,53,54,55,56,57,58,59,60,61,62,63,64,65,66,67,68,69,70,71,72,73,74,75,76,77,78,79,80,81,82,83,84,85,86,87,88,89,90,91,92,93,94,95,96,97,98,99,100,101,102,103,104,105,106,107,108,109,110,111,112,113,114,115,116,117,118,119,120,121,122,123,124,125,126,127,128,129,130,131,132,133,134,135,136,137,138,139,140,141,142,143,144,145,146,147,148,149,150],"tree_info":[0,0,0,0,0,0,0,0,0,0,0,0,0,0,0,0,0,0,0,0,0,0,0,0,0,0,0,0,0,0,0,0,0,0,0,0,0,0,0,0,0,0,0,0,0,0,0,0,0,0,0,0,0,0,0,0,0,0,0,0,0,0,0,0,0,0,0,0,0,0,0,0,0,0,0,0,0,0,0,0,0,0,0,0,0,0,0,0,0,0,0,0,0,0,0,0,0,0,0,0,0,0,0,0,0,0,0,0,0,0,0,0,0,0,0,0,0,0,0,0,0,0,0,0,0,0,0,0,0,0,0,0,0,0,0,0,0,0,0,0,0,0,0,0,0,0,0,0,0,0],"trees":[{"base_weights":[-0E0,6.666667E-1,-5.91195E-1,-1.3333334E-1,1E0,-1.0256411E0,-1.6470589E-1,6.666667E-1,-5.8064514E-1,1.4909092E-1,3.6734694E-1,-1.3333334E0,-2.857143E-1,-6.415094E-1,5.555556E-1,-1.818182E-2,1.2727273E-1,1.1764706E-1,-1.1111112E0,-2.0689656E-1,1E0,-4.0000003E-2,-1.4166666E0,1.3333334E-1,-5.882353E-1,-3.6363637E-1,-1.3846155E-1,1.3333334E-1,-1.8181819E-1,7.692308E-1,-1E-1,-1.3846155E-1,-2.2222223E-2,1.8181819E-1,-9.090909E-2,1.4285715E-1,2.857143E-1,-8.8E-1,-1.7037039E-1,-1E-1,9.090909E-2,-1.2727273E-1,4.0000003E-2,-8.75E-1,7.5E-2,1.818182E-2,-4E-1,1E-1,2.2222223E-2,-0E0,4.0000003E-2,6.666667E-2,-2.2222223E-2,3.3333334E-1,-1.5294118E-1,-2.2222223E-2,-9.62963E-2,-1E-1,1.818182E-2,5E-2,-3.3333335E-2,-0E0,5E-2],"categories":[],"categories_nodes":[],"categories_segments":[],"categories_sizes":[],"default_left":[0,0,0,0,0,0,0,0,0,0,0,0,0,0,0,0,0,0,0,0,0,0,0,0,0,0,0,0,0,0,0,0,0,0,0,0,0,0,0,0,0,0,0,0,0,0,0,0,0,0,0,0,0,0,0,0,0,0,0,0,0,0,0],"id":0,"left_children":[1,3,5,7,9,11,13,15,17,-1,19,21,23,25,27,-1,-1,29,31,33,35,-1,37,39,41,43,-1,-1,45,47,-1,-1,-1,49,-1,-1,51,53,-1,-1,-1,-1,-1,55,-1,-1,57,-1,-1,59,-1,-1,-1,61,-1,-1,-1,-1,-1,-1,-1,-1,-1],"loss_changes":[2.955975E1,9.533334E0,7.196211E0,4.4129033E0,7.2166977E0,4.058607E0,7.6541376E0,2.5454545E0,3.0014758E0,0E0,4.6572833E0,4.833336E-1,9.6582633E-1,2.2324843E0,5.4040403E0,0E0,0E0,3.8642533E0,7.86325E-1,2.1442008E0,1.4285712E0,0E0,3.4925842E-1,4.2060604E0,3.3839574E0,6.9204545E0,0E0,0E0,5.0909096E-1,1.880343E-1,0E0,0E0,0E0,2.1818182E-1,0E0,0E0,8.253969E-1,5.4345093E0,0E0,0E0,0E0,0E0,0E0,2.4537039E-1,0E0,0E0,1.490909E0,0E0,0E0,8.333334E-1,0E0,0E0,0E0,1.6666666E-1,0E0,0E0,0E0,0E0,0E0,0E0,0E0,0E0,0E0],"parents":[2147483647,0,0,1,1,2,2,3,3,4,4,5,5,6,6,7,7,8,8,10,10,11,11,12,12,13,13,14,14,17,17,18,18,19,19,20,20,22,22,23,23,24,24,25,25,28,28,29,29,33,33,36,36,37,37,43,43,46,46,49,49,53,53],"right_children":[2,4,6,8,10,12,14,16,18,-1,20,22,24,26,28,-1,-1,30,32,34,36,-1,38,40,42,44,-1,-1,46,48,-1,-1,-1,50,-1,-1,52,54,-1,-1,-1,-1,-1,56,-1,-1,58,-1,-1,60,-1,-1,-1,62,-1,-1,-1,-1,-1,-1,-1,-1,-1],"split_conditions":[-1.0009907E0,6.4805084E-1,-4.468647E-1,-3.3091024E-1,2.3191088E-1,5.576326E-1,1.7221814E0,2.3191088E-1,2.3191088E-1,1.4909092E-1,9.9713874E-1,8.826966E-3,2.3191088E-1,1.4103786E0,-8.666383E-1,-1.818182E-2,1.2727273E-1,8.826966E-3,1.0356973E0,4.344156E-1,-3.3091024E-1,-4.0000003E-2,2.3191088E-1,4.6064627E-1,-1.9216065E-1,6.640134E-1,-1.3846155E-1,1.3333334E-1,-3.3091024E-1,-4.468647E-1,-1E-1,-1.3846155E-1,-2.2222223E-2,-1.9216065E-1,-9.090909E-2,1.4285715E-1,-1.9216065E-1,-1.9216065E-1,-1.7037039E-1,-1E-1,9.090909E-2,-1.2727273E-1,4.0000003E-2,4.6064627E-1,7.5E-2,1.818182E-2,-2.5437763E-1,1E-1,2.2222223E-2,-6.875645E-1,4.0000003E-2,6.666667E-2,-2.2222223E-2,-5.60508E-1,-1.5294118E-1,-2.2222223E-2,-9.62963E-2,-1E-1,1.818182E-2,5E-2,-3.3333335E-2,-0E0,5E-2],"split_indices":[7,2,0,4,5,4,3,5,5,0,0,6,5,4,4,0,0,6,6,4,4,0,5,7,1,4,0,0,4,0,0,0,0,1,0,0,1,1,0,0,0,0,0,7,0,0,4,0,0,4,0,0,0,4,0,0,0,0,0,0,0,0,0],"split_type":[0,0,0,0,0,0,0,0,0,0,0,0,0,0,0,0,0,0,0,0,0,0,0,0,0,0,0,0,0,0,0,0,0,0,0,0,0,0,0,0,0,0,0,0,0,0,0,0,0,0,0,0,0,0,0,0,0,0,0,0,0,0,0],"sum_hessian":[7.3E1,3.425E1,3.875E1,1.025E1,2.4E1,1.85E1,2.025E1,3.5E0,6.75E0,1.275E1,1.125E1,1.25E1,6E0,1.225E1,8E0,1.75E0,1.75E0,3.25E0,3.5E0,6.25E0,5E0,1.5E0,1.1E1,2.75E0,3.25E0,1E1,2.25E0,3.5E0,4.5E0,2.25E0,1E0,2.25E0,1.25E0,4.5E0,1.75E0,2.5E0,2.5E0,5.25E0,5.75E0,1E0,1.75E0,1.75E0,1.5E0,7E0,3E0,1.75E0,2.75E0,1E0,1.25E0,3E0,1.5E0,1.25E0,1.25E0,2E0,3.25E0,1.25E0,5.75E0,1E0,1.75E0,1E0,2E0,1E0,1E0],"tree_param":{"num_deleted":"0","num_feature":"8","num_nodes":"63","size_leaf_vector":"1"}},{"base_weights":[-3.3773517E-3,6.0981125E-1,-5.469834E-1,-1.2288231E-1,9.155527E-1,-9.4793814E-1,-1.5386745E-1,6.253112E-1,-5.4163235E-1,1.3598981E-1,3.4370208E-1,-1.2290702E0,-2.7148128E-1,-5.924258E-1,5.088461E-1,-1.7025717E-2,1.1949158E-1,3.2305267E-2,-8.987685E-2,-1.9108546E-1,9.3354076E-1,-3.7609342E-2,-1.3046935E0,1.1777456E-2,-5.5100936E-1,-3.3179164E-1,-1.2931876E-1,1.2340363E-1,-1.753102E-1,1.7399792E-1,-8.5239865E-2,1.33154E-1,2.6996878E-1,-8.111617E-1,-1.568573E-1,3.9295003E-2,-1.2097442E-1,-8.037211E-1,6.945081E-2,1.8103367E-2,-3.8992515E-1,-1.3543041E-2,4.0442E-2,6.3003205E-2,-2.0989144E-2,3.1673614E-2,-1.4190052E-1,-2.0989144E-2,-8.827367E-1,-1.0909335E-3,-6.379438E-2,-1.8338136E-2,2.0004738E-2,-1.0381408E-1,-3.9555717E-2],"categories":[],"categories_nodes":[],"categories_segments":[],"categories_sizes":[],"default_left":[0,0,0,0,0,0,0,0,0,0,0,0,0,0,0,0,0,0,0,0,0,0,0,0,0,0,0,0,0,0,0,0,0,0,0,0,0,0,0,0,0,0,0,0,0,0,0,0,0,0,0,0,0,0,0],"id":1,"left_children":[1,3,5,7,9,11,13,15,17,-1,19,21,23,25,27,-1,-1,-1,-1,29,31,-1,33,-1,35,37,-1,-1,39,41,-1,-1,43,45,-1,-1,-1,47,-1,-1,49,51,-1,-1,-1,-1,-1,-1,53,-1,-1,-1,-1,-1,-1],"loss_changes":[2.4921644E1,7.9836016E0,6.1003494E0,3.8560941E0,5.862152E0,3.3603687E0,6.4639435E0,2.2393916E0,2.6786728E0,0E0,4.03631E0,3.7615013E-1,8.2505184E-1,1.9857516E0,4.672553E0,0E0,0E0,0E0,0E0,1.897414E0,1.2213678E0,0E0,2.8247452E-1,0E0,3.1133318E0,5.87738E0,0E0,0E0,4.9099863E-1,2.4307488E-1,0E0,0E0,7.3670197E-1,4.7209496E0,0E0,0E0,0E0,1.8946409E-1,0E0,0E0,3.453601E-1,1.8174312E-1,0E0,0E0,0E0,0E0,0E0,0E0,9.9389076E-2,0E0,0E0,0E0,0E0,0E0,0E0],"parents":[2147483647,0,0,1,1,2,2,3,3,4,4,5,5,6,6,7,7,8,8,10,10,11,11,12,12,13,13,14,14,19,19,20,20,22,22,24,24,25,25,28,28,29,29,32,32,33,33,37,37,40,40,41,41,48,48],"right_children":[2,4,6,8,10,12,14,16,18,-1,20,22,24,26,28,-1,-1,-1,-1,30,32,-1,34,-1,36,38,-1,-1,40,42,-1,-1,44,46,-1,-1,-1,48,-1,-1,50,52,-1,-1,-1,-1,-1,-1,54,-1,-1,-1,-1,-1,-1],"split_conditions":[-1.0009907E0,6.4805084E-1,-4.468647E-1,-3.3091024E-1,2.3191088E-1,5.576326E-1,1.7221814E0,2.3191088E-1,-1.9216065E-1,1.3598981E-1,9.9713874E-1,8.826966E-3,2.3191088E-1,1.4103786E0,-8.666383E-1,-1.7025717E-2,1.1949158E-1,3.2305267E-2,-8.987685E-2,4.344156E-1,-3.3091024E-1,-3.7609342E-2,2.3191088E-1,1.1777456E-2,4.6064627E-1,6.640134E-1,-1.2931876E-1,1.2340363E-1,8.826966E-3,8.826966E-3,-8.5239865E-2,1.33154E-1,-1.9216065E-1,-1.9216065E-1,-1.568573E-1,3.9295003E-2,-1.2097442E-1,4.6064627E-1,6.945081E-2,1.8103367E-2,-3.3091024E-1,-1.9216065E-1,4.0442E-2,6.3003205E-2,-2.0989144E-2,3.1673614E-2,-1.4190052E-1,-2.0989144E-2,8.9580595E-1,-1.0909335E-3,-6.379438E-2,-1.8338136E-2,2.0004738E-2,-1.0381408E-1,-3.9555717E-2],"split_indices":[7,2,0,4,5,4,3,5,1,0,0,6,5,4,4,0,0,0,0,4,4,0,5,0,7,4,0,0,6,6,0,0,1,1,0,0,0,7,0,0,4,1,0,0,0,0,0,0,5,0,0,0,0,0,0],"split_type":[0,0,0,0,0,0,0,0,0,0,0,0,0,0,0,0,0,0,0,0,0,0,0,0,0,0,0,0,0,0,0,0,0,0,0,0,0,0,0,0,0,0,0,0,0,0,0,0,0,0,0,0,0,0,0],"sum_hessian":[7.276433E1,3.41365E1,3.8627823E1,1.0226738E1,2.3909765E1,1.8424545E1,2.0203278E1,3.4927876E0,6.73395E0,1.267941E1,1.1230355E1,1.243832E1,5.986226E0,1.2221572E1,7.9817057E0,1.7498553E0,1.7429323E0,1.9962173E0,4.737733E0,6.2446094E0,4.985746E0,1.4994001E0,1.093892E1,2.7438936E0,3.2423325E0,9.982322E0,2.2392502E0,3.4844904E0,4.4972153E0,4.49822E0,1.7463892E0,2.487288E0,2.498458E0,5.2304435E0,5.708476E0,1.4984905E0,1.743842E0,6.986536E0,2.9957852E0,1.7492521E0,2.747963E0,2.998754E0,1.4994662E0,1.2486122E0,1.2498457E0,1.9993753E0,3.2310684E0,1.2498457E0,5.7366905E0,1.499876E0,1.2480869E0,1.7492537E0,1.2495002E0,3.4918985E0,2.244792E0],"tree_param":{"num_deleted":"0","num_feature":"8","num_nodes":"55","size_leaf_vector":"1"}},{"base_weights":[-5.9118136E-3,5.6259596E-1,-5.096271E-1,-1.0702295E-1,8.432243E-1,-8.8128984E-1,-1.462762E-1,5.883965E-1,-4.9669608E-1,1.251602E-1,3.2157785E-1,-1.1435523E0,-2.5514254E-1,-5.5338913E-1,4.6909055E-1,-1.5944708E-2,1.12729825E-1,1.2981036E-1,-9.7970074E-1,7.455563E-1,-3.3260387E-1,-3.5377707E-2,-1.2139511E0,1.0915638E-2,-5.175767E-1,-3.085695E-1,-1.2152324E-1,1.1493087E-1,-1.6641217E-1,5.0145872E-2,-3.3166215E-2,-1.2467325E-1,-1.6028924E-2,2.0826375E-2,1.1432388E-1,2.8173184E-1,-9.379067E-2,-7.545479E-1,-1.4601259E-1,3.6952693E-2,-1.1403085E-1,-7.471138E-1,6.443622E-2,-3.7166917E-1,1.7366093E-2,-1.7747976E-2,6.150946E-2,2.957558E-2,-1.3273071E-1,-1.982711E-2,-8.1981677E-1,-6.0861714E-2,-1.0254643E-3,-9.63439E-2,-3.688059E-2],"categories":[],"categories_nodes":[],"categories_segments":[],"categories_sizes":[],"default_left":[0,0,0,0,0,0,0,0,0,0,0,0,0,0,0,0,0,0,0,0,0,0,0,0,0,0,0,0,0,0,0,0,0,0,0,0,0,0,0,0,0,0,0,0,0,0,0,0,0,0,0,0,0,0,0],"id":2,"left_children":[1,3,5,7,9,11,13,15,17,-1,19,21,23,25,27,-1,-1,29,31,33,35,-1,37,-1,39,41,-1,-1,43,-1,-1,-1,-1,-1,-1,45,-1,47,-1,-1,-1,49,-1,51,-1,-1,-1,-1,-1,-1,53,-1,-1,-1,-1],"loss_changes":[2.1244286E1,6.6402464E0,5.182125E0,3.3222075E0,4.8540344E0,2.8681707E0,5.5420012E0,1.9824613E0,2.4596949E0,0E0,3.6264148E0,3.08609E-1,7.226424E-1,1.755547E0,4.0544043E0,0E0,0E0,8.932557E-1,7.781358E-1,1.4070182E0,2.302583E0,0E0,2.3019409E-1,0E0,2.7549782E0,5.052711E0,0E0,0E0,4.4801846E-1,0E0,0E0,0E0,0E0,0E0,0E0,6.433464E-1,0E0,4.1093435E0,0E0,0E0,0E0,1.5484858E-1,0E0,3.1441432E-1,0E0,0E0,0E0,0E0,0E0,0E0,7.898569E-2,0E0,0E0,0E0,0E0],"parents":[2147483647,0,0,1,1,2,2,3,3,4,4,5,5,6,6,7,7,8,8,10,10,11,11,12,12,13,13,14,14,17,17,18,18,19,19,20,20,22,22,24,24,25,25,28,28,35,35,37,37,41,41,43,43,50,50],"right_children":[2,4,6,8,10,12,14,16,18,-1,20,22,24,26,28,-1,-1,30,32,34,36,-1,38,-1,40,42,-1,-1,44,-1,-1,-1,-1,-1,-1,46,-1,48,-1,-1,-1,50,-1,52,-1,-1,-1,-1,-1,-1,54,-1,-1,-1,-1],"split_conditions":[-1.0009907E0,6.4805084E-1,-4.468647E-1,-3.3091024E-1,2.3191088E-1,5.576326E-1,1.7221814E0,2.3191088E-1,2.3191088E-1,1.251602E-1,1.2828527E-1,8.826966E-3,2.3191088E-1,1.4103786E0,-8.666383E-1,-1.5944708E-2,1.12729825E-1,-1.9216065E-1,1.0356973E0,-4.468647E-1,8.826966E-3,-3.5377707E-2,2.3191088E-1,1.0915638E-2,4.6064627E-1,6.640134E-1,-1.2152324E-1,1.1493087E-1,-2.5437763E-1,5.0145872E-2,-3.3166215E-2,-1.2467325E-1,-1.6028924E-2,2.0826375E-2,1.1432388E-1,9.9713874E-1,-9.379067E-2,-1.9216065E-1,-1.4601259E-1,3.6952693E-2,-1.1403085E-1,4.6064627E-1,6.443622E-2,-1.9216065E-1,1.7366093E-2,-1.7747976E-2,6.150946E-2,2.957558E-2,-1.3273071E-1,-1.982711E-2,8.9580595E-1,-6.0861714E-2,-1.0254643E-3,-9.63439E-2,-3.688059E-2],"split_indices":[7,2,0,4,5,4,3,5,5,0,4,6,5,4,4,0,0,1,6,0,6,0,5,0,7,4,0,0,4,0,0,0,0,0,0,0,0,1,0,0,0,7,0,1,0,0,0,0,0,0,5,0,0,0,0],"split_type":[0,0,0,0,0,0,0,0,0,0,0,0,0,0,0,0,0,0,0,0,0,0,0,0,0,0,0,0,0,0,0,0,0,0,0,0,0,0,0,0,0,0,0,0,0,0,0,0,0,0,0,0,0,0,0],"sum_hessian":[7.2184555E1,3.3856373E1,3.8328182E1,1.0181206E1,2.3675167E1,1.8242708E1,2.0085472E1,3.4730852E0,6.7081203E0,1.2494417E1,1.1180749E1,1.2274987E1,5.967722E0,1.2148808E1,7.9366636E0,1.7494577E0,1.7236276E0,3.2385864E0,3.469534E0,6.699252E0,4.4814973E0,1.4977436E0,1.0777244E1,2.7434516E0,3.22427E0,9.938665E0,2.2101421E0,3.4429533E0,4.4937105E0,1.745884E0,1.4927022E0,2.2234526E0,1.2460814E0,3.4975493E0,3.2017028E0,2.4894538E0,1.9920433E0,5.1784625E0,5.5987816E0,1.4975541E0,1.726716E0,6.954261E0,2.9844048E0,2.7443817E0,1.7493287E0,1.2437624E0,1.2456915E0,1.9980835E0,3.180379E0,1.2494167E0,5.7048445E0,1.2444911E0,1.4998904E0,3.4651937E0,2.2396505E0],"tree_param":{"num_deleted":"0","num_feature":"8","num_nodes":"55","size_leaf_vector":"1"}},{"base_weights":[-9.636733E-3,5.1820546E-1,-4.7695774E-1,-9.94612E-2,7.787284E-1,-8.2374465E-1,-1.3946788E-1,5.552076E-1,-4.661632E-1,1.1597583E0,2.9827794E-1,-1.0710304E0,-2.4035351E-1,-5.185974E-1,4.336458E-1,-1.4933603E-2,1.0678822E-1,1.2105735E-1,-9.217429E-1,1.2422297E-1,5.033965E-2,6.933897E-1,-3.0962792E-1,-3.32916E-2,-1.1378089E0,1.0117308E-2,-4.8776996E-1,-2.8765315E-1,-1.14781454E-1,1.07578374E-1,-1.5805937E-1,4.7032237E-2,-3.1222973E-2,-1.1751924E-1,-1.5148165E-2,1.9211438E-2,1.0691824E-1,2.6657814E-1,-8.7956406E-2,-7.0528555E-1,-1.3709535E-1,-1.09180175E-1,3.6233343E-2,-6.9609106E-1,5.987652E-2,1.7529808E-2,-3.6099097E-1,-1.6771948E-2,5.8227863E-2,2.7624914E-2,-1.2497175E-1,-1.8731575E-2,-7.633868E-1,-1.2578502E-3,-5.882978E-2,-4.1097965E-2,-9.708388E-2],"categories":[],"categories_nodes":[],"categories_segments":[],"categories_sizes":[],"default_left":[0,0,0,0,0,0,0,0,0,0,0,0,0,0,0,0,0,0,0,0,0,0,0,0,0,0,0,0,0,0,0,0,0,0,0,0,0,0,0,0,0,0,0,0,0,0,0,0,0,0,0,0,0,0,0,0,0],"id":3,"left_children":[1,3,5,7,9,11,13,15,17,19,21,23,25,27,29,-1,-1,31,33,-1,-1,35,37,-1,39,-1,41,43,-1,-1,45,-1,-1,-1,-1,-1,-1,47,-1,49,-1,-1,-1,51,-1,-1,53,-1,-1,-1,-1,-1,55,-1,-1,-1,-1],"loss_changes":[1.8089094E1,5.6202497E0,4.4361553E0,2.924831E0,4.109893E0,2.4799538E0,4.7684584E0,1.7644768E0,2.1612904E0,9.072304E-2,3.1238184E0,2.6379204E-1,6.3560325E-1,1.5648162E0,3.540278E0,0E0,0E0,7.8716016E-1,6.869211E-1,0E0,0E0,1.2355433E0,2.0283263E0,0E0,1.9694138E-1,0E0,2.549737E0,4.353614E0,0E0,0E0,4.3455178E-1,0E0,0E0,0E0,0E0,0E0,0E0,5.752981E-1,0E0,3.605931E0,0E0,0E0,0E0,1.2770367E-1,0E0,0E0,2.8866422E-1,0E0,0E0,0E0,0E0,0E0,8.771944E-2,0E0,0E0,0E0,0E0],"parents":[2147483647,0,0,1,1,2,2,3,3,4,4,5,5,6,6,7,7,8,8,9,9,10,10,11,11,12,12,13,13,14,14,17,17,18,18,21,21,22,22,24,24,26,26,27,27,30,30,37,37,39,39,43,43,46,46,52,52],"right_children":[2,4,6,8,10,12,14,16,18,20,22,24,26,28,30,-1,-1,32,34,-1,-1,36,38,-1,40,-1,42,44,-1,-1,46,-1,-1,-1,-1,-1,-1,48,-1,50,-1,-1,-1,52,-1,-1,54,-1,-1,-1,-1,-1,56,-1,-1,-1,-1],"split_conditions":[-1.0009907E0,6.4805084E-1,-4.468647E-1,-3.3091024E-1,2.3191088E-1,5.576326E-1,1.7221814E0,2.3191088E-1,2.3191088E-1,1.7221814E0,1.2828527E-1,8.826966E-3,2.3191088E-1,1.4103786E0,-8.666383E-1,-1.4933603E-2,1.0678822E-1,-1.9216065E-1,1.0356973E0,1.2422297E-1,5.033965E-2,-4.468647E-1,8.826966E-3,-3.32916E-2,2.3191088E-1,1.0117308E-2,-1.9216065E-1,6.640134E-1,-1.14781454E-1,1.07578374E-1,-3.3091024E-1,4.7032237E-2,-3.1222973E-2,-1.1751924E-1,-1.5148165E-2,1.9211438E-2,1.0691824E-1,9.9713874E-1,-8.7956406E-2,-1.9216065E-1,-1.3709535E-1,-1.09180175E-1,3.6233343E-2,4.6064627E-1,5.987652E-2,1.7529808E-2,8.826966E-3,-1.6771948E-2,5.8227863E-2,2.7624914E-2,-1.2497175E-1,-1.8731575E-2,-1.9216065E-1,-1.2578502E-3,-5.882978E-2,-4.1097965E-2,-9.708388E-2],"split_indices":[7,2,0,4,5,4,3,5,5,3,4,6,5,4,4,0,0,1,6,0,0,0,6,0,5,0,1,4,0,0,4,0,0,0,0,0,0,0,0,1,0,0,0,7,0,0,6,0,0,0,0,0,1,0,0,0,0],"split_type":[0,0,0,0,0,0,0,0,0,0,0,0,0,0,0,0,0,0,0,0,0,0,0,0,0,0,0,0,0,0,0,0,0,0,0,0,0,0,0,0,0,0,0,0,0,0,0,0,0,0,0,0,0,0,0,0,0],"sum_hessian":[7.133067E1,3.3445206E1,3.7885468E1,1.0105227E1,2.333998E1,1.7974754E1,1.9910713E1,3.443511E0,6.6617165E0,1.2228247E1,1.1111732E1,1.2036778E1,5.9379754E0,1.204064E1,7.870073E0,1.7488557E0,1.6946552E0,3.2311704E0,3.430546E0,1.0070321E1,2.1579258E0,6.649338E0,4.4623938E0,1.4952228E0,1.0541555E1,2.7428734E0,3.195102E0,9.873783E0,2.166857E0,3.3818595E0,4.488213E0,1.7417231E0,1.4894474E0,2.1856623E0,1.2448838E0,3.4965127E0,3.152825E0,2.4836686E0,1.9787252E0,5.1018467E0,5.4397087E0,1.7016771E0,1.4934249E0,6.906272E0,2.9675112E0,1.7498655E0,2.7383475E0,1.2427716E0,1.240897E0,1.995975E0,3.105872E0,1.248759E0,5.657513E0,1.4978315E0,1.2405161E0,3.2009733E0,2.4565399E0],"tree_param":{"num_deleted":"0","num_feature":"8","num_nodes":"57","size_leaf_vector":"1"}},{"base_weights":[-1.2299702E-2,4.805654E-1,-4.482824E-1,-9.266247E-2,7.240661E-1,-7.7321434E-1,-1.3392277E-1,5.2517456E-1,-4.3863547E-1,1.0836271E0,2.7734864E-1,-1.0084151E0,-2.2681583E-1,-4.8813882E-1,4.0174517E-1,-1.3987601E-2,1.0151428E-1,1.12963155E-1,-8.701851E-1,7.2195214E-1,1.342059E-1,6.4639664E-1,-2.8877386E-1,-3.133912E-2,-1.0727148E0,9.377683E-3,-4.607298E-1,-2.6979867E-1,-1.088766E-1,1.011039E-1,-1.502202E-1,4.414362E-2,-2.9402047E-2,-1.1128508E-1,-1.4316702E-2,8.3727556E-1,1.3250725E-2,1.7724283E-2,1.00393906E-1,2.5243336E-1,-8.270076E-2,-6.618715E-1,-1.296107E-1,3.410986E-2,-1.03671014E-1,-6.510151E-1,5.5708718E-2,-3.486039E-1,1.7394466E-2,1.0106112E-1,2.2287764E-2,-1.5850848E-2,5.5175524E-2,2.5809411E-2,-1.1829902E-1,-2.9490802E-1,-8.0353767E-1,-5.6006547E-2,-2.0158605E-3,-9.311119E-2,3.2949023E-2,-2.6100105E-2,-1.1443539E-1],"categories":[],"categories_nodes":[],"categories_segments":[],"categories_sizes":[],"default_left":[0,0,0,0,0,0,0,0,0,0,0,0,0,0,0,0,0,0,0,0,0,0,0,0,0,0,0,0,0,0,0,0,0,0,0,0,0,0,0,0,0,0,0,0,0,0,0,0,0,0,0,0,0,0,0,0,0,0,0,0,0,0,0],"id":4,"left_children":[1,3,5,7,9,11,13,15,17,19,21,23,25,27,29,-1,-1,31,33,35,-1,37,39,-1,41,-1,43,45,-1,-1,47,-1,-1,-1,-1,49,-1,-1,-1,51,-1,53,-1,-1,-1,55,-1,57,-1,-1,-1,-1,-1,-1,-1,59,61,-1,-1,-1,-1,-1,-1],"loss_changes":[1.553485E1,4.805324E0,3.8133917E0,2.5832152E0,3.5445518E0,2.167636E0,4.1237555E0,1.5778072E0,1.9076436E0,2.3863697E-1,2.6978536E0,2.3340988E-1,5.6075156E-1,1.3995225E0,3.107394E0,0E0,0E0,6.9413584E-1,6.133065E-1,4.021697E-1,0E0,1.0943882E0,1.7918079E0,0E0,1.7496681E-1,0E0,2.2745118E0,3.7667336E0,0E0,0E0,4.1315478E-1,0E0,0E0,0E0,0E0,4.2707253E-1,0E0,0E0,0E0,5.1500726E-1,0E0,3.1852703E0,0E0,0E0,0E0,1.8953109E-1,0E0,2.4800864E-1,0E0,0E0,0E0,0E0,0E0,0E0,0E0,1.8697585E0,6.1067295E-1,0E0,0E0,0E0,0E0,0E0,0E0],"parents":[2147483647,0,0,1,1,2,2,3,3,4,4,5,5,6,6,7,7,8,8,9,9,10,10,11,11,12,12,13,13,14,14,17,17,18,18,19,19,21,21,22,22,24,24,26,26,27,27,30,30,35,35,39,39,41,41,45,45,47,47,55,55,56,56],"right_children":[2,4,6,8,10,12,14,16,18,20,22,24,26,28,30,-1,-1,32,34,36,-1,38,40,-1,42,-1,44,46,-1,-1,48,-1,-1,-1,-1,50,-1,-1,-1,52,-1,54,-1,-1,-1,56,-1,58,-1,-1,-1,-1,-1,-1,-1,60,62,-1,-1,-1,-1,-1,-1],"split_conditions":[-1.0009907E0,6.4805084E-1,-4.468647E-1,-3.3091024E-1,2.3191088E-1,5.576326E-1,1.7221814E0,2.3191088E-1,2.3191088E-1,4.344156E-1,1.2828527E-1,8.826966E-3,2.3191088E-1,1.4103786E0,-8.666383E-1,-1.3987601E-2,1.0151428E-1,-1.9216065E-1,1.0356973E0,1.7221814E0,1.342059E-1,-4.468647E-1,8.826966E-3,-3.133912E-2,2.3191088E-1,9.377683E-3,4.6064627E-1,6.640134E-1,-1.088766E-1,1.011039E-1,-2.5437763E-1,4.414362E-2,-2.9402047E-2,-1.1128508E-1,-1.4316702E-2,-4.468647E-1,1.3250725E-2,1.7724283E-2,1.00393906E-1,9.9713874E-1,-8.270076E-2,-1.9216065E-1,-1.296107E-1,3.410986E-2,-1.03671014E-1,8.8899165E-1,5.5708718E-2,-1.9216065E-1,1.7394466E-2,1.0106112E-1,2.2287764E-2,-1.5850848E-2,5.5175524E-2,2.5809411E-2,-1.1829902E-1,-5.60508E-1,-6.875645E-1,-5.6006547E-2,-2.0158605E-3,-9.311119E-2,3.2949023E-2,-2.6100105E-2,-1.1443539E-1],"split_indices":[7,2,0,4,5,4,3,5,5,4,4,6,5,4,4,0,0,1,6,3,0,0,6,0,5,0,7,4,0,0,4,0,0,0,0,0,0,0,0,0,0,1,0,0,0,6,0,1,0,0,0,0,0,0,0,4,4,0,0,0,0,0,0],"split_type":[0,0,0,0,0,0,0,0,0,0,0,0,0,0,0,0,0,0,0,0,0,0,0,0,0,0,0,0,0,0,0,0,0,0,0,0,0,0,0,0,0,0,0,0,0,0,0,0,0,0,0,0,0,0,0,0,0,0,0,0,0,0,0],"sum_hessian":[7.02927E1,3.2946E1,3.7346703E1,1.00072565E1,2.2938742E1,1.7646784E1,1.9699919E1,3.4063132E0,6.600943E0,1.1919239E1,1.1019503E1,1.1745354E1,5.9014297E0,1.1911827E1,7.7880917E0,1.7480906E0,1.6582227E0,3.221509E0,3.3794339E0,6.5483785E0,5.370861E0,6.585018E0,4.434485E0,1.4920045E0,1.0253349E1,2.7421927E0,3.1592371E0,9.798917E0,2.11291E0,3.3064826E0,4.4816093E0,1.7358587E0,1.4856503E0,2.135827E0,1.2436069E0,5.1251984E0,1.4231799E0,3.4948857E0,3.0901325E0,2.4759016E0,1.9585831E0,5.007259E0,5.24609E0,1.491165E0,1.6680722E0,6.852447E0,2.9464703E0,2.7334132E0,1.748196E0,3.4944534E0,1.6307449E0,1.2416584E0,1.2342432E0,1.9932219E0,3.0140371E0,2.9345188E0,3.917928E0,1.2338363E0,1.4995768E0,1.2102112E0,1.7243078E0,2.1929069E0,1.7250211E0],"tree_param":{"num_deleted":"0","num_feature":"8","num_nodes":"63","size_leaf_vector":"1"}},{"base_weights":[-1.39261475E-2,4.4974503E-1,-4.239292E-1,-8.650754E-2,6.790459E-1,-7.2836745E-1,-1.3140021E-1,4.9783948E-1,-4.136535E-1,1.0226678E0,2.584148E-1,-9.535045E-1,-2.1449114E-1,-4.6433902E-1,3.7287197E-1,-1.3102308E-2,9.6789934E-2,1.05466254E-1,-8.23871E-1,6.786762E-1,1.2715554E-1,6.037419E-1,-2.6975262E-1,-2.9509772E-2,-1.0161564E0,8.6923605E-3,-4.363421E-1,-2.5824252E-1,-1.0364562E-1,9.532932E-2,-1.428573E-1,4.1457605E-2,-2.7694155E-2,-1.0578754E-1,-1.3531618E-2,9.1622695E-2,3.1367227E-1,2.6459908E-1,1.11232094E-1,2.3920822E-1,-7.7929676E-2,-6.231893E-1,-1.2321567E-1,-9.989903E-2,3.3508934E-2,-6.1586714E-1,5.1882327E-2,1.7423242E-2,-3.380897E-1,6.407329E-2,-1.5625319E-2,-3.321999E-2,8.129951E-2,-1.4981374E-2,5.2328415E-2,2.4118302E-2,-1.1247738E-1,-2.8215212E-1,-7.5754327E-1,-1.8948958E-3,-5.443749E-2,-8.8952236E-2,3.0792255E-2,-2.4378093E-2,-1.0830617E-1],"categories":[],"categories_nodes":[],"categories_segments":[],"categories_sizes":[],"default_left":[0,0,0,0,0,0,0,0,0,0,0,0,0,0,0,0,0,0,0,0,0,0,0,0,0,0,0,0,0,0,0,0,0,0,0,0,0,0,0,0,0,0,0,0,0,0,0,0,0,0,0,0,0,0,0,0,0,0,0,0,0,0,0,0,0],"id":5,"left_children":[1,3,5,7,9,11,13,15,17,19,21,23,25,27,29,-1,-1,31,33,35,-1,37,39,-1,41,-1,43,45,-1,-1,47,-1,-1,-1,-1,-1,49,51,-1,53,-1,55,-1,-1,-1,57,-1,-1,59,-1,-1,-1,-1,-1,-1,-1,-1,61,63,-1,-1,-1,-1,-1,-1],"loss_changes":[1.3526766E1,4.166445E0,3.2657247E0,2.2882843E0,3.134266E0,1.9098501E0,3.6097105E0,1.4166508E0,1.6903032E0,2.1603966E-1,2.3351393E0,2.1237755E-1,4.96508E-1,1.2385807E0,2.738842E0,0E0,0E0,6.124702E-1,5.5281115E-1,3.5730696E-1,0E0,1.0010724E0,1.5867592E0,0E0,1.5985298E-1,0E0,2.121463E0,3.299454E0,0E0,0E0,3.9775372E-1,0E0,0E0,0E0,0E0,0E0,7.8434753E-1,2.1741586E0,0E0,4.614874E-1,0E0,2.829296E0,0E0,0E0,0E0,1.5507054E-1,0E0,0E0,2.3510188E-1,0E0,0E0,0E0,0E0,0E0,0E0,0E0,0E0,1.6781917E0,5.525019E-1,0E0,0E0,0E0,0E0,0E0,0E0],"parents":[2147483647,0,0,1,1,2,2,3,3,4,4,5,5,6,6,7,7,8,8,9,9,10,10,11,11,12,12,13,13,14,14,17,17,18,18,19,19,21,21,22,22,24,24,26,26,27,27,30,30,36,36,37,37,39,39,41,41,45,45,48,48,57,57,58,58],"right_children":[2,4,6,8,10,12,14,16,18,20,22,24,26,28,30,-1,-1,32,34,36,-1,38,40,-1,42,-1,44,46,-1,-1,48,-1,-1,-1,-1,-1,50,52,-1,54,-1,56,-1,-1,-1,58,-1,-1,60,-1,-1,-1,-1,-1,-1,-1,-1,62,64,-1,-1,-1,-1,-1,-1],"split_conditions":[-1.0009907E0,6.4805084E-1,-4.468647E-1,-3.3091024E-1,2.3191088E-1,5.576326E-1,1.7221814E0,2.3191088E-1,2.3191088E-1,4.344156E-1,1.2828527E-1,8.826966E-3,2.3191088E-1,1.4103786E0,-8.666383E-1,-1.3102308E-2,9.6789934E-2,-1.9216065E-1,1.0356973E0,-2.5437763E-1,1.2715554E-1,8.826966E-3,8.826966E-3,-2.9509772E-2,2.3191088E-1,8.6923605E-3,-1.9216065E-1,6.640134E-1,-1.0364562E-1,9.532932E-2,8.826966E-3,4.1457605E-2,-2.7694155E-2,-1.0578754E-1,-1.3531618E-2,9.1622695E-2,-4.468647E-1,-4.468647E-1,1.11232094E-1,9.9713874E-1,-7.7929676E-2,-1.9216065E-1,-1.2321567E-1,-9.989903E-2,3.3508934E-2,8.8899165E-1,5.1882327E-2,1.7423242E-2,-3.3091024E-1,6.407329E-2,-1.5625319E-2,-3.321999E-2,8.129951E-2,-1.4981374E-2,5.2328415E-2,2.4118302E-2,-1.1247738E-1,-5.60508E-1,-6.875645E-1,-1.8948958E-3,-5.443749E-2,-8.8952236E-2,3.0792255E-2,-2.4378093E-2,-1.0830617E-1],"split_indices":[7,2,0,4,5,4,3,5,5,4,4,6,5,4,4,0,0,1,6,4,0,6,6,0,5,0,1,4,0,0,6,0,0,0,0,0,0,0,0,0,0,1,0,0,0,6,0,0,4,0,0,0,0,0,0,0,0,4,4,0,0,0,0,0,0],"split_type":[0,0,0,0,0,0,0,0,0,0,0,0,0,0,0,0,0,0,0,0,0,0,0,0,0,0,0,0,0,0,0,0,0,0,0,0,0,0,0,0,0,0,0,0,0,0,0,0,0,0,0,0,0,0,0,0,0,0,0,0,0,0,0,0,0],"sum_hessian":[6.915067E1,3.2405952E1,3.674472E1,9.892853E0,2.25131E1,1.7275751E1,1.946897E1,3.3633976E0,6.5294557E0,1.1603061E1,1.0910039E1,1.1417887E1,5.8578644E0,1.1774323E1,7.6946464E0,1.7471979E0,1.6161997E0,3.2100816E0,3.3193738E0,6.4354115E0,5.167649E0,6.5103474E0,4.399691E0,1.4882314E0,9.929656E0,2.7414374E0,3.116427E0,9.7231045E0,2.0512195E0,3.2210815E0,4.4735646E0,1.7286502E0,1.4814314E0,2.077103E0,1.242271E0,2.9835095E0,3.451902E0,4.817859E0,1.6924884E0,2.4665296E0,1.9331617E0,4.9000936E0,5.029562E0,1.6315E0,1.4849269E0,6.800701E0,2.9224033E0,1.745747E0,2.7278178E0,1.821022E0,1.6308799E0,2.495899E0,2.3219602E0,1.2404493E0,1.2260803E0,1.9899695E0,2.910124E0,2.918281E0,3.88242E0,1.4996262E0,1.2281916E0,1.1879928E0,1.7302883E0,2.1841302E0,1.6982899E0],"tree_param":{"num_deleted":"0","num_feature":"8","num_nodes":"65","size_leaf_vector":"1"}},{"base_weights":[-1.4562565E-2,4.2365438E-1,-4.019996E-1,-8.0902025E-2,6.408759E-1,-6.88055E-1,-1.2906797E-1,4.7283155E-1,-3.908514E-1,9.687829E-1,2.452689E-1,-9.0469086E-1,-2.0315842E-1,-4.4280243E-1,3.465599E-1,-1.2273676E-2,9.2522636E-2,9.851285E-2,-7.8190744E-1,6.399183E-1,1.210951E-1,5.712165E-1,-2.523284E-1,-2.7794173E-2,-9.663101E-1,8.057276E-3,-4.1401833E-1,-2.4768533E-1,-9.896406E-2,9.01213E-2,-1.3593772E-1,3.895503E-2,-2.6090985E-2,-1.00887574E-1,-1.2790205E-2,7.523326E-1,9.596202E-3,2.4888894E-1,1.055174E-1,2.2682396E-1,-7.356896E-2,-5.8839625E-1,-1.1766497E-1,-9.5356695E-2,3.154912E-2,-5.8393085E-1,4.8356465E-1,1.6980369E-2,-3.2561702E-1,1.0265135E-1,3.130399E-1,-3.0829672E-2,7.687442E-2,-1.4160438E-2,4.966597E-2,2.254189E-2,-1.0733274E-1,-1.244753E-2,-6.52172E-1,1.8056301E-2,5.890408E-2,-5.338129E-2,-1.0085723E-3,5.184975E-2,-7.4150697E-3,-3.272624E-2,-8.569964E-2],"categories":[],"categories_nodes":[],"categories_segments":[],"categories_sizes":[],"default_left":[0,0,0,0,0,0,0,0,0,0,0,0,0,0,0,0,0,0,0,0,0,0,0,0,0,0,0,0,0,0,0,0,0,0,0,0,0,0,0,0,0,0,0,0,0,0,0,0,0,0,0,0,0,0,0,0,0,0,0,0,0,0,0,0,0,0,0],"id":6,"left_children":[1,3,5,7,9,11,13,15,17,19,21,23,25,27,29,-1,-1,31,33,35,-1,37,39,-1,41,-1,43,45,-1,-1,47,-1,-1,-1,-1,49,-1,51,-1,53,-1,55,-1,-1,-1,57,59,-1,61,-1,63,-1,-1,-1,-1,-1,-1,-1,65,-1,-1,-1,-1,-1,-1,-1,-1],"loss_changes":[1.1870657E1,3.649459E0,2.8068948E0,2.0326781E0,2.753541E0,1.6942606E0,3.1693575E0,1.2765238E0,1.5027797E0,2.0218754E-1,2.0562444E0,1.9748211E-1,4.4081485E-1,1.1010935E0,2.4223921E0,0E0,0E0,5.406976E-1,5.022688E-1,3.7563777E-1,0E0,8.9634895E-1,1.408184E0,0E0,1.4897823E-1,0E0,1.9027717E0,2.8967867E0,0E0,0E0,3.722108E-1,0E0,0E0,0E0,0E0,3.9208436E-1,0E0,1.9077901E0,0E0,4.138959E-1,0E0,2.5248382E0,0E0,0E0,0E0,1.6139555E-1,1.816231E-2,0E0,2.3868096E-1,0E0,3.339783E-1,0E0,0E0,0E0,0E0,0E0,0E0,0E0,1.5212893E-1,0E0,0E0,0E0,0E0,0E0,0E0,0E0,0E0],"parents":[2147483647,0,0,1,1,2,2,3,3,4,4,5,5,6,6,7,7,8,8,9,9,10,10,11,11,12,12,13,13,14,14,17,17,18,18,19,19,21,21,22,22,24,24,26,26,27,27,30,30,35,35,37,37,39,39,41,41,45,45,46,46,48,48,50,50,58,58],"right_children":[2,4,6,8,10,12,14,16,18,20,22,24,26,28,30,-1,-1,32,34,36,-1,38,40,-1,42,-1,44,46,-1,-1,48,-1,-1,-1,-1,50,-1,52,-1,54,-1,56,-1,-1,-1,58,60,-1,62,-1,64,-1,-1,-1,-1,-1,-1,-1,66,-1,-1,-1,-1,-1,-1,-1,-1],"split_conditions":[-1.0009907E0,6.4805084E-1,-4.468647E-1,-3.3091024E-1,2.3191088E-1,5.576326E-1,1.7221814E0,2.3191088E-1,2.3191088E-1,4.344156E-1,1.2828527E-1,8.826966E-3,2.3191088E-1,1.4103786E0,-8.666383E-1,-1.2273676E-2,9.2522636E-2,-1.9216065E-1,1.0356973E0,1.7221814E0,1.210951E-1,8.826966E-3,8.826966E-3,-2.7794173E-2,2.3191088E-1,8.057276E-3,-1.9216065E-1,6.640134E-1,-9.896406E-2,9.01213E-2,-3.3091024E-1,3.895503E-2,-2.6090985E-2,-1.00887574E-1,-1.2790205E-2,-2.5437763E-1,9.596202E-3,-4.468647E-1,1.055174E-1,9.9713874E-1,-7.356896E-2,-1.9216065E-1,-1.1766497E-1,-9.5356695E-2,3.154912E-2,4.6064627E-1,6.649427E-1,1.6980369E-2,1.2828527E-1,1.0265135E-1,-4.468647E-1,-3.0829672E-2,7.687442E-2,-1.4160438E-2,4.966597E-2,2.254189E-2,-1.0733274E-1,-1.244753E-2,-1.9216065E-1,1.8056301E-2,5.890408E-2,-5.338129E-2,-1.0085723E-3,5.184975E-2,-7.4150697E-3,-3.272624E-2,-8.569964E-2],"split_indices":[7,2,0,4,5,4,3,5,5,4,4,6,5,4,4,0,0,1,6,3,0,6,6,0,5,0,1,4,0,0,4,0,0,0,0,4,0,0,0,0,0,1,0,0,0,7,2,0,4,0,0,0,0,0,0,0,0,0,1,0,0,0,0,0,0,0,0],"split_type":[0,0,0,0,0,0,0,0,0,0,0,0,0,0,0,0,0,0,0,0,0,0,0,0,0,0,0,0,0,0,0,0,0,0,0,0,0,0,0,0,0,0,0,0,0,0,0,0,0,0,0,0,0,0,0,0,0,0,0,0,0,0,0,0,0,0,0],"sum_hessian":[6.791416E1,3.1824764E1,3.6089394E1,9.766637E0,2.2058126E1,1.6878412E1,1.9210981E1,3.3163571E0,6.45028E0,1.1268853E1,1.0789273E1,1.1067899E1,5.8105135E0,1.1617104E1,7.5938783E0,1.7462071E0,1.5701499E0,3.197296E0,3.2529843E0,6.3237066E0,4.9451466E0,6.429636E0,4.3596377E0,1.4840262E0,9.583873E0,2.7406309E0,3.0698829E0,9.632925E0,1.984179E0,3.129066E0,4.4648123E0,1.7204025E0,1.4768934E0,2.012091E0,1.2408935E0,4.9232E0,1.4005064E0,4.7681856E0,1.6614505E0,2.4558792E0,1.9037585E0,4.784678E0,4.7991943E0,1.5881474E0,1.4817355E0,6.736698E0,2.8962264E0,1.7495396E0,2.715273E0,2.2082186E0,2.7149816E0,2.4978855E0,2.2703E0,1.2391663E0,1.216713E0,1.98634E0,2.7983382E0,1.2363857E0,5.5003123E0,1.4481132E0,1.4481132E0,1.2190928E0,1.4961802E0,1.5521997E0,1.1627818E0,3.1311655E0,2.369147E0],"tree_param":{"num_deleted":"0","num_feature":"8","num_nodes":"67","size_leaf_vector":"1"}},{"base_weights":[-1.3624017E-2,4.00689E-1,-3.797987E-1,-7.5770125E-2,6.072977E-1,-6.515464E-1,-1.2279421E-1,3.1530574E-1,-4.9175787E-1,9.2187756E-1,2.3329489E-1,-8.6077726E-1,-1.9279447E-1,4.837119E-1,-3.408899E-1,6.4322156E-1,-4.9645793E-2,1.0078976E-2,-7.7583455E-2,6.070841E-1,1.15806416E-1,5.416505E-1,-2.3630711E-1,-1.1621026E-1,-6.028886E-1,7.4687027E-3,-3.937032E-1,-2.6053924E-2,8.53785E-2,-1.8290134E-1,-9.473559E-2,9.086951E-2,2.7565276E-2,7.155939E-1,9.050118E-3,2.3450394E-1,1.004197E-1,2.1521048E-1,-6.9559515E-2,-1.3704617E-1,-9.364945E-2,3.0991072E-2,-9.229451E-2,-9.152756E-2,4.099278E-2,9.818935E-2,2.9591912E-1,-2.8622705E-2,7.2799385E-2,-1.3385202E-2,4.717056E-2,6.921806E-2,-7.4168004E-2,-3.786835E-1,3.8878855E-1,4.925943E-2,-7.0087E-3,1.821485E-2,-6.1754167E-2,9.568384E-2,-3.3317428E-2],"categories":[],"categories_nodes":[],"categories_segments":[],"categories_sizes":[],"default_left":[0,0,0,0,0,0,0,0,0,0,0,0,0,0,0,0,0,0,0,0,0,0,0,0,0,0,0,0,0,0,0,0,0,0,0,0,0,0,0,0,0,0,0,0,0,0,0,0,0,0,0,0,0,0,0,0,0,0,0,0,0],"id":7,"left_children":[1,3,5,7,9,11,13,15,17,19,21,23,25,27,29,31,-1,-1,-1,33,-1,35,37,-1,39,-1,41,-1,-1,43,-1,-1,-1,45,-1,47,-1,49,-1,51,-1,-1,-1,-1,53,-1,55,-1,-1,-1,-1,-1,-1,57,59,-1,-1,-1,-1,-1,-1],"loss_changes":[1.0411222E1,3.217022E0,2.4628763E0,1.884764E0,2.4415493E0,1.5104365E0,2.8031178E0,1.9403288E0,1.0112085E0,1.8361759E-1,1.815618E0,2.0903015E-1,3.9263874E-1,1.7892183E0,1.2885026E0,2.152723E-1,0E0,0E0,0E0,3.3960676E-1,0E0,8.071332E-1,1.2520487E0,0E0,1.1748583E0,0E0,1.782779E0,0E0,0E0,2.2253537E0,0E0,0E0,0E0,3.5952425E-1,0E0,1.6769668E0,0E0,3.7151065E-1,0E0,2.8551824E0,0E0,0E0,0E0,0E0,1.7784579E0,0E0,3.0011207E-1,0E0,0E0,0E0,0E0,0E0,0E0,8.5878533E-1,3.0274296E0,0E0,0E0,0E0,0E0,0E0,0E0],"parents":[2147483647,0,0,1,1,2,2,3,3,4,4,5,5,6,6,7,7,8,8,9,9,10,10,11,11,12,12,13,13,14,14,15,15,19,19,21,21,22,22,24,24,26,26,29,29,33,33,35,35,37,37,39,39,44,44,46,46,53,53,54,54],"right_children":[2,4,6,8,10,12,14,16,18,20,22,24,26,28,30,32,-1,-1,-1,34,-1,36,38,-1,40,-1,42,-1,-1,44,-1,-1,-1,46,-1,48,-1,50,-1,52,-1,-1,-1,-1,54,-1,56,-1,-1,-1,-1,-1,-1,58,60,-1,-1,-1,-1,-1,-1],"split_conditions":[-1.0009907E0,6.4805084E-1,-4.468647E-1,8.826966E-3,2.3191088E-1,5.576326E-1,-8.666383E-1,6.7295444E-1,-3.3091024E-1,4.344156E-1,1.2828527E-1,6.4805084E-1,2.3191088E-1,1.7221814E0,1.4103786E0,-6.875645E-1,-4.9645793E-2,1.0078976E-2,-7.7583455E-2,1.7221814E0,1.15806416E-1,8.826966E-3,8.826966E-3,-1.1621026E-1,2.3191088E-1,7.4687027E-3,4.6064627E-1,-2.6053924E-2,8.53785E-2,-6.3704056E-1,-9.473559E-2,9.086951E-2,2.7565276E-2,-2.5437763E-1,9.050118E-3,-4.468647E-1,1.004197E-1,9.9713874E-1,-6.9559515E-2,-1.9216065E-1,-9.364945E-2,3.0991072E-2,-9.229451E-2,-9.152756E-2,6.649427E-1,9.818935E-2,-4.468647E-1,-2.8622705E-2,7.2799385E-2,-1.3385202E-2,4.717056E-2,6.921806E-2,-7.4168004E-2,-3.3091024E-1,8.8899165E-1,4.925943E-2,-7.0087E-3,1.821485E-2,-6.1754167E-2,9.568384E-2,-3.3317428E-2],"split_indices":[7,2,0,6,5,4,4,4,4,4,4,2,5,3,4,4,0,0,0,3,0,6,6,0,5,0,7,0,0,4,0,0,0,4,0,0,0,0,0,1,0,0,0,0,2,0,0,0,0,0,0,0,0,4,6,0,0,0,0,0,0],"split_type":[0,0,0,0,0,0,0,0,0,0,0,0,0,0,0,0,0,0,0,0,0,0,0,0,0,0,0,0,0,0,0,0,0,0,0,0,0,0,0,0,0,0,0,0,0,0,0,0,0,0,0,0,0,0,0,0,0,0,0,0,0],"sum_hessian":[6.662229E1,3.1212385E1,3.540991E1,9.63241E0,2.1579977E1,1.646511E1,1.8944796E1,5.089619E0,4.5427904E0,1.0925481E1,1.0654495E1,1.0705929E1,5.759182E0,4.6885204E0,1.4256275E1,3.7730873E0,1.316532E0,1.681208E0,2.8615825E0,6.213877E0,4.7116036E0,6.338808E0,4.315687E0,3.3202388E0,7.38569E0,2.7397916E0,3.0193903E0,1.6553789E0,3.0331411E0,1.2342544E1,1.913732E0,1.3359973E0,2.43709E0,4.8168406E0,1.3970364E0,4.7149234E0,1.6238847E0,2.444233E0,1.8714545E0,3.6707337E0,3.7149563E0,1.4740726E0,1.5453176E0,2.166799E0,1.0175744E1,2.1273212E0,2.6895196E0,2.4984992E0,2.2164242E0,1.2378292E0,1.2064037E0,1.4868271E0,2.1839066E0,4.571102E0,5.604642E0,1.524473E0,1.1650466E0,1.4362497E0,3.1348524E0,2.9545972E0,2.650045E0],"tree_param":{"num_deleted":"0","num_feature":"8","num_nodes":"61","size_leaf_vector":"1"}},{"base_weights":[-1.2465816E-2,3.799037E-1,-3.5886338E-1,-6.8720594E-2,5.7672876E-1,-6.169457E-1,-1.1728321E-1,2.980049E-1,-4.583494E-1,8.7929755E-1,2.223308E-1,-8.186828E-1,-1.8323341E-1,4.5510346E-1,-3.2057318E-1,6.088481E-1,-4.7218885E-2,9.45055E-3,-7.261004E-2,5.7670164E-1,1.11128084E-1,6.401087E-1,-1.194923E-1,-2.135144E-2,-8.865366E-1,6.9232257E-3,-3.7498534E-1,-2.4528652E-2,8.1022866E-2,-1.707286E-1,-9.088475E-2,8.709525E-2,2.5620697E-2,6.817168E-1,8.535101E-3,1.2750535E-2,9.6859954E-2,-2.9862854E-1,3.0793348E-2,-5.321804E-1,-1.0884782E-1,2.9193053E-2,-8.845529E-2,-8.610496E-2,3.8692255E-2,9.414406E-2,2.7988943E-1,-6.873405E-1,2.8917197E-2,1.9622494E-2,-9.895197E-2,-3.4846702E-1,3.6060423E-1,4.682162E-2,-6.6247247E-3,-1.1594987E-1,1.6711384E-2,-5.9492595E-2,2.0557677E-2,8.891537E-2,-3.0944204E-2],"categories":[],"categories_nodes":[],"categories_segments":[],"categories_sizes":[],"default_left":[0,0,0,0,0,0,0,0,0,0,0,0,0,0,0,0,0,0,0,0,0,0,0,0,0,0,0,0,0,0,0,0,0,0,0,0,0,0,0,0,0,0,0,0,0,0,0,0,0,0,0,0,0,0,0,0,0,0,0,0,0],"id":8,"left_children":[1,3,5,7,9,11,13,15,17,19,21,23,25,27,29,31,-1,-1,-1,33,-1,35,37,-1,39,-1,41,-1,-1,43,-1,-1,-1,45,-1,-1,-1,47,-1,49,-1,-1,-1,-1,51,-1,53,55,-1,-1,-1,57,59,-1,-1,-1,-1,-1,-1,-1,-1],"loss_changes":[9.161618E0,2.8318205E0,2.158567E0,1.6420819E0,2.1726933E0,1.3431444E0,2.4401302E0,1.7320044E0,8.831568E-1,1.7167854E-1,1.7201636E0,2.7715778E-1,3.506106E-1,1.5867872E0,1.1790679E0,2.1455383E-1,0E0,0E0,0E0,3.0827117E-1,0E0,7.751343E-1,6.411808E-1,0E0,1.2894106E-1,0E0,1.6064377E0,0E0,0E0,1.9552789E0,0E0,0E0,0E0,3.3223724E-1,0E0,0E0,0E0,1.4696642E0,0E0,2.0427923E0,0E0,0E0,0E0,0E0,1.516189E0,0E0,2.6987094E-1,1.6640145E0,0E0,0E0,0E0,8.834013E-1,2.606653E0,0E0,0E0,0E0,0E0,0E0,0E0,0E0,0E0],"parents":[2147483647,0,0,1,1,2,2,3,3,4,4,5,5,6,6,7,7,8,8,9,9,10,10,11,11,12,12,13,13,14,14,15,15,19,19,21,21,22,22,24,24,26,26,29,29,33,33,37,37,39,39,44,44,46,46,47,47,51,51,52,52],"right_children":[2,4,6,8,10,12,14,16,18,20,22,24,26,28,30,32,-1,-1,-1,34,-1,36,38,-1,40,-1,42,-1,-1,44,-1,-1,-1,46,-1,-1,-1,48,-1,50,-1,-1,-1,-1,52,-1,54,56,-1,-1,-1,58,60,-1,-1,-1,-1,-1,-1,-1,-1],"split_conditions":[-1.0009907E0,6.4805084E-1,-4.468647E-1,8.826966E-3,2.3191088E-1,5.576326E-1,-8.666383E-1,6.7295444E-1,-3.3091024E-1,4.344156E-1,-3.3091024E-1,8.826966E-3,2.3191088E-1,1.7221814E0,1.4103786E0,-6.875645E-1,-4.7218885E-2,9.45055E-3,-7.261004E-2,1.7221814E0,1.11128084E-1,-4.468647E-1,6.7295444E-1,-2.135144E-2,2.3191088E-1,6.9232257E-3,4.6064627E-1,-2.4528652E-2,8.1022866E-2,-6.3704056E-1,-9.088475E-2,8.709525E-2,2.5620697E-2,-2.5437763E-1,8.535101E-3,1.2750535E-2,9.6859954E-2,-1.9216065E-1,3.0793348E-2,-1.9216065E-1,-1.0884782E-1,2.9193053E-2,-8.845529E-2,-8.610496E-2,6.649427E-1,9.414406E-2,-4.468647E-1,8.826966E-3,2.8917197E-2,1.9622494E-2,-9.895197E-2,5.576326E-1,8.8899165E-1,4.682162E-2,-6.6247247E-3,-1.1594987E-1,1.6711384E-2,-5.9492595E-2,2.0557677E-2,8.891537E-2,-3.0944204E-2],"split_indices":[7,2,0,6,5,4,4,4,4,4,4,6,5,3,4,4,0,0,0,3,0,0,4,0,5,0,7,0,0,4,0,0,0,4,0,0,0,1,0,1,0,0,0,0,2,0,0,6,0,0,0,4,6,0,0,0,0,0,0,0,0],"split_type":[0,0,0,0,0,0,0,0,0,0,0,0,0,0,0,0,0,0,0,0,0,0,0,0,0,0,0,0,0,0,0,0,0,0,0,0,0,0,0,0,0,0,0,0,0,0,0,0,0,0,0,0,0,0,0,0,0,0,0,0,0],"sum_hessian":[6.540348E1,3.0621424E1,3.4782055E1,9.536252E0,2.1085173E1,1.6065424E1,1.871663E1,5.0336494E0,4.502602E0,1.0575332E1,1.050984E1,1.0359284E1,5.7061405E0,4.580633E0,1.4135998E1,3.735516E0,1.2981334E0,1.6802481E0,2.822354E0,6.1019673E0,4.4733644E0,4.336777E0,6.1730623E0,1.4624847E0,8.896799E0,2.7389352E0,2.9672055E0,1.6452031E0,2.93543E0,1.229456E1,1.8414376E0,1.2997007E0,2.4358153E0,4.70825E0,1.3937172E0,2.2358823E0,2.100895E0,4.562309E0,1.6107538E0,4.5492835E0,4.3475156E0,1.4701684E0,1.4970372E0,2.1374002E0,1.015716E1,2.044121E0,2.6641293E0,2.6442955E0,1.9180135E0,1.9748608E0,2.5744228E0,4.5738087E0,5.583351E0,1.4969654E0,1.1671638E0,1.473215E0,1.1710804E0,3.114553E0,1.4592558E0,2.938435E0,2.6449158E0],"tree_param":{"num_deleted":"0","num_feature":"8","num_nodes":"61","size_leaf_vector":"1"}},{"base_weights":[-1.2012842E-2,3.5913277E-1,-3.404243E-1,-6.2260237E-2,5.4573077E-1,-5.8620435E-1,-1.1236092E-1,2.8198332E-1,-4.2769843E-1,8.402795E-1,2.0822664E-1,-7.024507E-1,4.544302E-3,4.2868394E-1,-3.0278563E-1,5.7696694E-1,-4.493011E-2,8.861466E-3,-6.805682E-2,5.484646E-1,1.06938355E-1,6.0696507E-1,-1.1333919E-1,-9.809106E-2,-4.873119E-1,-2.3094986E-2,7.69937E-2,-1.6004573E-1,-8.735186E-2,8.3621E-2,2.3818536E-2,6.5030885E-1,8.049387E-3,1.1871868E-2,9.293208E-2,-2.8232688E-1,2.8851047E-2,-1.6687967E-1,-7.6058215E-1,-8.118213E-2,3.676888E-2,9.04466E-2,2.6486078E-1,-6.484076E-1,2.704115E-2,6.466124E-2,-8.411387E-2,-3.4762062E-3,-9.748765E-2,6.1965924E-2,-1.7505907E-1,4.4523116E-2,-6.261911E-3,-1.09619334E-1,1.5818097E-2,2.4428898E-2,-5.4646213E-2],"categories":[],"categories_nodes":[],"categories_segments":[],"categories_sizes":[],"default_left":[0,0,0,0,0,0,0,0,0,0,0,0,0,0,0,0,0,0,0,0,0,0,0,0,0,0,0,0,0,0,0,0,0,0,0,0,0,0,0,0,0,0,0,0,0,0,0,0,0,0,0,0,0,0,0,0,0],"id":9,"left_children":[1,3,5,7,9,11,13,15,17,19,21,23,-1,25,27,29,-1,-1,-1,31,-1,33,35,-1,37,-1,-1,39,-1,-1,-1,41,-1,-1,-1,43,-1,45,47,-1,49,-1,51,53,-1,-1,-1,-1,-1,-1,55,-1,-1,-1,-1,-1,-1],"loss_changes":[8.063398E0,2.4772115E0,1.9004188E0,1.4331876E0,1.9761167E0,1.2542167E0,2.1318758E0,1.5482321E0,7.7296895E-1,1.6393518E-1,1.5322092E0,3.678751E-1,0E0,1.4097514E0,1.0788937E0,2.132343E-1,0E0,0E0,0E0,2.807839E-1,0E0,7.163702E-1,5.6771946E-1,0E0,7.4459267E-1,0E0,0E0,1.7219744E0,0E0,0E0,0E0,3.08959E-1,0E0,0E0,0E0,1.2976111E0,0E0,3.7593338E0,7.579086E-1,0E0,1.47757E0,0E0,2.4282771E-1,1.4847692E0,0E0,0E0,0E0,0E0,0E0,0E0,1.5215838E0,0E0,0E0,0E0,0E0,0E0,0E0],"parents":[2147483647,0,0,1,1,2,2,3,3,4,4,5,5,6,6,7,7,8,8,9,9,10,10,11,11,13,13,14,14,15,15,19,19,21,21,22,22,24,24,27,27,31,31,35,35,37,37,38,38,40,40,42,42,43,43,50,50],"right_children":[2,4,6,8,10,12,14,16,18,20,22,24,-1,26,28,30,-1,-1,-1,32,-1,34,36,-1,38,-1,-1,40,-1,-1,-1,42,-1,-1,-1,44,-1,46,48,-1,50,-1,52,54,-1,-1,-1,-1,-1,-1,56,-1,-1,-1,-1,-1,-1],"split_conditions":[-1.0009907E0,6.4805084E-1,-4.468647E-1,8.826966E-3,2.3191088E-1,6.7295444E-1,-8.666383E-1,6.7295444E-1,-3.3091024E-1,4.344156E-1,-3.3091024E-1,8.8899165E-1,4.544302E-3,1.7221814E0,1.4103786E0,-6.875645E-1,-4.493011E-2,8.861466E-3,-6.805682E-2,1.7221814E0,1.06938355E-1,-4.468647E-1,6.7295444E-1,-9.809106E-2,2.3191088E-1,-2.3094986E-2,7.69937E-2,-6.3704056E-1,-8.735186E-2,8.3621E-2,2.3818536E-2,-2.5437763E-1,8.049387E-3,1.1871868E-2,9.293208E-2,-1.9216065E-1,2.8851047E-2,-1.9216065E-1,6.4805084E-1,-8.118213E-2,-3.3091024E-1,9.04466E-2,-4.468647E-1,8.826966E-3,2.704115E-2,6.466124E-2,-8.411387E-2,-3.4762062E-3,-9.748765E-2,6.1965924E-2,8.826966E-3,4.4523116E-2,-6.261911E-3,-1.09619334E-1,1.5818097E-2,2.4428898E-2,-5.4646213E-2],"split_indices":[7,2,0,6,5,4,4,4,4,4,4,6,0,3,4,4,0,0,0,3,0,0,4,0,5,0,0,4,0,0,0,4,0,0,0,1,0,1,2,0,4,0,0,6,0,0,0,0,0,0,6,0,0,0,0,0,0],"split_type":[0,0,0,0,0,0,0,0,0,0,0,0,0,0,0,0,0,0,0,0,0,0,0,0,0,0,0,0,0,0,0,0,0,0,0,0,0,0,0,0,0,0,0,0,0,0,0,0,0,0,0,0,0,0,0,0,0],"sum_hessian":[6.415088E1,3.0072119E1,3.4078762E1,9.433914E0,2.0638205E1,1.564647E1,1.8432293E1,4.9754243E0,4.4584904E0,1.0224941E1,1.0413263E1,1.31198435E1,2.5266266E0,4.472783E0,1.3959509E1,3.695689E0,1.2797352E0,1.679279E0,2.7792113E0,5.9896903E0,4.235251E0,4.2525783E0,6.160685E0,4.16698E0,8.952864E0,1.6352036E0,2.8375795E0,1.2190976E1,1.7685329E0,1.2618258E0,2.4338632E0,4.5991445E0,1.3905455E0,2.2352734E0,2.0173051E0,4.5462894E0,1.6143953E0,4.8622017E0,4.090662E0,2.1027296E0,1.0088246E1,1.9601364E0,2.6390083E0,2.6308112E0,1.9154785E0,2.222166E0,2.6400356E0,1.1973673E0,2.8932948E0,2.1757913E0,7.912455E0,1.4698641E0,1.169144E0,1.4607899E0,1.1700212E0,3.8771038E0,4.0353518E0],"tree_param":{"num_deleted":"0","num_feature":"8","num_nodes":"57","size_leaf_vector":"1"}},{"base_weights":[-1.0694833E-2,3.400535E-1,-3.206189E-1,1.982982E-1,9.223656E-2,-5.527006E-1,-1.0679066E-1,6.3612324E-1,-1.0419779E-1,-6.649122E-1,4.2173453E-3,4.0418607E-1,-2.845015E-1,8.171127E-3,7.6219454E-2,3.9476103E-1,-6.5062773E-1,-9.12812E-2,-4.3070996E-1,-2.1746835E-2,7.32433E-2,-1.4861946E-1,-8.408927E-2,2.5153514E-2,6.931426E-1,-8.6370623E-1,1.7790323E-3,3.5806004E-2,-6.6688246E-1,-7.66814E-2,3.5946608E-2,2.9159698E-1,-3.4607533E-2,8.765193E-2,1.5992625E-2,-1.3973187E-2,-1.15176514E-1,-1.0231743E-1,-3.9327705E-1,-3.289582E-1,3.401707E-1,4.637106E-2,-2.3737138E-3,-6.7816414E-2,-2.948399E-4,-5.682769E-2,2.0257434E-2,8.078219E-2,-2.5687013E-2],"categories":[],"categories_nodes":[],"categories_segments":[],"categories_sizes":[],"default_left":[0,0,0,0,0,0,0,0,0,0,0,0,0,0,0,0,0,0,0,0,0,0,0,0,0,0,0,0,0,0,0,0,0,0,0,0,0,0,0,0,0,0,0,0,0,0,0,0,0],"id":10,"left_children":[1,3,5,7,-1,9,11,13,15,17,-1,19,21,-1,-1,23,25,-1,27,-1,-1,29,-1,31,33,35,-1,-1,37,-1,39,41,-1,-1,-1,-1,-1,-1,43,45,47,-1,-1,-1,-1,-1,-1,-1,-1],"loss_changes":[7.0676107E0,2.3359137E0,1.6530151E0,3.485108E0,0E0,1.1163597E0,1.8580282E0,6.847911E-1,4.653443E0,4.0667105E-1,0E0,1.2543025E0,9.96143E-1,0E0,0E0,9.807844E-1,1.1653552E0,0E0,1.9111108E0,0E0,0E0,1.5259973E0,0E0,6.0346097E-1,3.4584212E-1,1.1201148E0,0E0,0E0,3.051417E-1,0E0,1.3406669E0,2.0099351E-1,0E0,0E0,0E0,0E0,0E0,0E0,6.351429E-1,8.19943E-1,2.0301244E0,0E0,0E0,0E0,0E0,0E0,0E0,0E0,0E0],"parents":[2147483647,0,0,1,1,2,2,3,3,5,5,6,6,7,7,8,8,9,9,11,11,12,12,15,15,16,16,18,18,21,21,23,23,24,24,25,25,28,28,30,30,31,31,38,38,39,39,40,40],"right_children":[2,4,6,8,-1,10,12,14,16,18,-1,20,22,-1,-1,24,26,-1,28,-1,-1,30,-1,32,34,36,-1,-1,38,-1,40,42,-1,-1,-1,-1,-1,-1,44,46,48,-1,-1,-1,-1,-1,-1,-1,-1],"split_conditions":[-1.0009907E0,1.4103786E0,-4.468647E-1,-3.3091024E-1,9.223656E-2,6.7295444E-1,-8.666383E-1,-1.1727687E0,2.3191088E-1,-5.60508E-1,4.2173453E-3,1.7221814E0,1.4103786E0,8.171127E-3,7.6219454E-2,2.6017013E-1,1.7221814E0,-9.12812E-2,-2.3490451E-1,-2.1746835E-2,7.32433E-2,-6.3704056E-1,-8.408927E-2,-1.9216065E-1,-4.468647E-1,1.2828527E-1,1.7790323E-3,3.5806004E-2,8.8899165E-1,-7.66814E-2,6.649427E-1,-4.468647E-1,-3.4607533E-2,8.765193E-2,1.5992625E-2,-1.3973187E-2,-1.15176514E-1,-1.0231743E-1,5.576326E-1,5.576326E-1,8.8899165E-1,4.637106E-2,-2.3737138E-3,-6.7816414E-2,-2.948399E-4,-5.682769E-2,2.0257434E-2,8.078219E-2,-2.5687013E-2],"split_indices":[7,4,0,4,0,4,4,4,5,4,0,3,4,0,0,4,3,0,4,0,0,4,0,1,0,4,0,0,6,0,2,0,0,0,0,0,0,0,4,4,6,0,0,0,0,0,0,0,0],"split_type":[0,0,0,0,0,0,0,0,0,0,0,0,0,0,0,0,0,0,0,0,0,0,0,0,0,0,0,0,0,0,0,0,0,0,0,0,0,0,0,0,0,0,0,0,0,0,0,0,0],"sum_hessian":[6.3013256E1,2.9514166E1,3.3499092E1,2.481408E1,4.700086E0,1.5303941E1,1.819515E1,9.688408E0,1.512567E1,1.2776215E1,2.527726E0,4.366276E0,1.3828875E1,2.1002908E0,7.5881176E0,8.051348E0,7.074323E0,4.799002E0,7.977213E0,1.625427E0,2.740849E0,1.213289E1,1.6959846E0,4.0807686E0,3.9705791E0,5.1427507E0,1.9315722E0,1.7192289E0,6.257984E0,2.0642166E0,1.0068673E1,2.500549E0,1.5802196E0,2.4754286E0,1.4951506E0,1.886505E0,3.2562459E0,1.5282643E0,4.7297196E0,4.5408273E0,5.527846E0,1.3132318E0,1.1873173E0,2.3078694E0,2.4218502E0,3.0834136E0,1.4574137E0,2.9018426E0,2.6260033E0],"tree_param":{"num_deleted":"0","num_feature":"8","num_nodes":"49","size_leaf_vector":"1"}},{"base_weights":[-1.22682275E-2,3.167405E-1,-3.0298924E-1,1.8392488E-1,8.65403E-2,-5.204276E-1,-1.02468744E-1,5.8976376E-1,-9.620911E-2,-6.2810457E-1,3.9139832E-3,3.8139275E-1,-2.694425E-1,2.955906E-1,8.906141E-2,3.7166357E-1,-6.1215204E-1,-8.639381E-2,-4.077719E-1,-2.0478627E-2,6.973391E-2,-1.395701E-1,-8.105865E-2,-1.0778454E-1,8.046049E-2,2.464948E-2,6.548423E-1,-4.827601E-4,-8.323748E-1,3.338222E-2,-6.342477E-1,-7.2541185E-2,3.431942E-2,4.251327E-2,-6.484943E-2,2.765346E-1,-3.2422274E-2,8.306433E-2,1.507798E-2,-1.0997301E-1,-1.1596348E-2,-9.769306E-2,-3.7117404E-1,5.929553E-2,-1.7055698E-1,4.4108376E-2,-2.2441994E-3,-6.463775E-2,-2.7397493E-4,4.1445382E-2,-4.2013083E-2],"categories":[],"categories_nodes":[],"categories_segments":[],"categories_sizes":[],"default_left":[0,0,0,0,0,0,0,0,0,0,0,0,0,0,0,0,0,0,0,0,0,0,0,0,0,0,0,0,0,0,0,0,0,0,0,0,0,0,0,0,0,0,0,0,0,0,0,0,0,0,0],"id":11,"left_children":[1,3,5,7,-1,9,11,13,15,17,-1,19,21,23,-1,25,27,-1,29,-1,-1,31,-1,33,-1,35,37,-1,39,-1,41,-1,43,-1,-1,45,-1,-1,-1,-1,-1,-1,47,-1,49,-1,-1,-1,-1,-1,-1],"loss_changes":[6.1170697E0,2.0283499E0,1.4260657E0,2.9488196E0,0E0,9.906316E-1,1.6294979E0,6.685524E-1,4.068065E0,3.4943438E-1,0E0,1.1173508E0,9.1540694E-1,1.4870696E0,0E0,8.649001E-1,1.0584624E0,0E0,1.7024204E0,0E0,0E0,1.3502905E0,0E0,1.6262105E0,0E0,5.350057E-1,3.0877995E-1,0E0,9.8800564E-1,0E0,2.814319E-1,0E0,1.3586537E0,0E0,0E0,1.8123665E-1,0E0,0E0,0E0,0E0,0E0,0E0,5.71535E-1,0E0,1.4612489E0,0E0,0E0,0E0,0E0,0E0,0E0],"parents":[2147483647,0,0,1,1,2,2,3,3,5,5,6,6,7,7,8,8,9,9,11,11,12,12,13,13,15,15,16,16,18,18,21,21,23,23,25,25,26,26,28,28,30,30,32,32,35,35,42,42,44,44],"right_children":[2,4,6,8,-1,10,12,14,16,18,-1,20,22,24,-1,26,28,-1,30,-1,-1,32,-1,34,-1,36,38,-1,40,-1,42,-1,44,-1,-1,46,-1,-1,-1,-1,-1,-1,48,-1,50,-1,-1,-1,-1,-1,-1],"split_conditions":[-1.0009907E0,1.4103786E0,-4.468647E-1,-3.3091024E-1,8.65403E-2,6.7295444E-1,-8.666383E-1,-4.468647E-1,2.3191088E-1,-5.60508E-1,3.9139832E-3,1.7221814E0,1.4103786E0,-5.60508E-1,8.906141E-2,2.6017013E-1,1.2828527E-1,-8.639381E-2,-2.3490451E-1,-2.0478627E-2,6.973391E-2,-6.3704056E-1,-8.105865E-2,-1.9216065E-1,8.046049E-2,-1.9216065E-1,-4.468647E-1,-4.827601E-4,1.7221814E0,3.338222E-2,8.8899165E-1,-7.2541185E-2,-3.3091024E-1,4.251327E-2,-6.484943E-2,-4.468647E-1,-3.2422274E-2,8.306433E-2,1.507798E-2,-1.0997301E-1,-1.1596348E-2,-9.769306E-2,5.576326E-1,5.929553E-2,2.3191088E-1,4.4108376E-2,-2.2441994E-3,-6.463775E-2,-2.7397493E-4,4.1445382E-2,-4.2013083E-2],"split_indices":[7,4,0,4,0,4,4,0,5,4,0,3,4,4,0,4,4,0,4,0,0,4,0,1,0,1,0,0,3,0,6,0,4,0,0,0,0,0,0,0,0,0,4,0,5,0,0,0,0,0,0],"split_type":[0,0,0,0,0,0,0,0,0,0,0,0,0,0,0,0,0,0,0,0,0,0,0,0,0,0,0,0,0,0,0,0,0,0,0,0,0,0,0,0,0,0,0,0,0,0,0,0,0,0,0],"sum_hessian":[6.1949463E1,2.9019087E1,3.2930378E1,2.4438456E1,4.5806327E0,1.5033319E1,1.7897057E1,9.528675E0,1.490978E1,1.2504592E1,2.5287278E0,4.262092E0,1.3634965E1,5.8201838E0,3.708491E0,7.9657965E0,6.9439836E0,4.628937E0,7.8756547E0,1.615909E0,2.6461833E0,1.20104265E1,1.6245378E0,3.686788E0,2.1333957E0,4.0679173E0,3.897879E0,2.1198475E0,4.8241363E0,1.7315892E0,6.1440654E0,2.023038E0,9.987389E0,1.9644245E0,1.7223635E0,2.4827347E0,1.5851827E0,2.4095924E0,1.4882866E0,3.123451E0,1.7006851E0,1.4898479E0,4.6542177E0,2.1716762E0,7.815713E0,1.2947984E0,1.1879363E0,2.2323585E0,2.4218593E0,2.1396482E0,5.6760645E0],"tree_param":{"num_deleted":"0","num_feature":"8","num_nodes":"51","size_leaf_vector":"1"}},{"base_weights":[-1.1892567E-2,2.981973E-1,-2.847315E-1,-7.395036E-2,4.660099E-1,-4.9051526E-1,-9.58159E-2,2.664185E-1,-4.2462635E-1,7.5130236E-1,1.5756133E-1,-5.939513E-1,3.6325175E-3,-3.129543E-1,2.4028094E-1,5.0805646E-1,-3.681083E-2,2.2824157E-3,-6.321861E-2,8.2910284E-2,2.6019761E-2,4.1963947E-1,-2.2057417E-1,-8.42613E-1,-3.9910933E-1,-1.6512549E-1,-7.8228936E-2,5.665347E-1,-3.0030143E-1,7.632324E-2,1.96762E-2,1.12826146E-1,9.1339566E-2,2.3249643E-1,-6.755969E-2,-1.0407028E-1,-3.7975114E-2,-1.0052823E-1,-6.7328525E-1,-4.6622843E-1,4.5389193E-1,8.9796714E-2,2.1267943E-1,-4.6349045E-2,-3.5072656E-3,-2.9272396E-2,5.59054E-2,-3.9762314E-3,4.0106717E-2,-8.359196E-2,5.72535E-1,2.6428315E-3,-9.014102E-2,-1.7513499E-3,-5.48216E-1,5.8653276E-2,1.3181458E-2,6.877178E-2,-2.2408973E-2,-2.7534038E-2,1.0518724E-1,-2.487625E-2,-7.506453E-2],"categories":[],"categories_nodes":[],"categories_segments":[],"categories_sizes":[],"default_left":[0,0,0,0,0,0,0,0,0,0,0,0,0,0,0,0,0,0,0,0,0,0,0,0,0,0,0,0,0,0,0,0,0,0,0,0,0,0,0,0,0,0,0,0,0,0,0,0,0,0,0,0,0,0,0,0,0,0,0,0,0,0,0],"id":12,"left_children":[1,3,5,7,9,11,13,15,17,19,21,23,-1,25,27,29,-1,-1,-1,-1,-1,31,33,35,37,39,-1,41,43,-1,-1,45,-1,47,-1,-1,-1,49,51,53,55,-1,57,-1,-1,-1,-1,-1,-1,-1,59,-1,-1,-1,61,-1,-1,-1,-1,-1,-1,-1,-1],"loss_changes":[5.3228993E0,1.8746452E0,1.2532179E0,1.3091905E0,1.6807718E0,8.806932E-1,1.4384657E0,1.0609076E0,5.086185E-1,1.7995214E-1,1.1915268E0,3.049693E-1,0E0,6.883242E-1,1.5629761E0,2.1107912E-1,0E0,0E0,0E0,0E0,0E0,9.4137466E-1,1.2280626E0,5.542469E-2,6.9535196E-1,2.117989E0,0E0,4.2725527E-1,1.4068377E-1,0E0,0E0,1.1396178E0,0E0,1.695602E-1,0E0,0E0,0E0,3.2688782E0,7.7140784E-1,2.6168978E-1,8.732045E-2,0E0,9.5496005E-1,0E0,0E0,0E0,0E0,0E0,0E0,0E0,1.7270863E0,0E0,0E0,0E0,1.892215E-1,0E0,0E0,0E0,0E0,0E0,0E0,0E0,0E0],"parents":[2147483647,0,0,1,1,2,2,3,3,4,4,5,5,6,6,7,7,8,8,9,9,10,10,11,11,13,13,14,14,15,15,21,21,22,22,23,23,24,24,25,25,27,27,28,28,31,31,33,33,37,37,38,38,39,39,40,40,42,42,50,50,54,54],"right_children":[2,4,6,8,10,12,14,16,18,20,22,24,-1,26,28,30,-1,-1,-1,-1,-1,32,34,36,38,40,-1,42,44,-1,-1,46,-1,48,-1,-1,-1,50,52,54,56,-1,58,-1,-1,-1,-1,-1,-1,-1,60,-1,-1,-1,62,-1,-1,-1,-1,-1,-1,-1,-1],"split_conditions":[-1.0009907E0,6.4805084E-1,-4.468647E-1,8.826966E-3,2.3191088E-1,6.7295444E-1,1.7221814E0,6.7295444E-1,-3.3091024E-1,1.7221814E0,1.2828527E-1,8.8899165E-1,3.6325175E-3,1.4103786E0,-3.3091024E-1,-6.875645E-1,-3.681083E-2,2.2824157E-3,-6.321861E-2,8.2910284E-2,2.6019761E-2,8.826966E-3,8.826966E-3,-1.9216065E-1,2.3191088E-1,6.640134E-1,-7.8228936E-2,6.4805084E-1,1.2828527E-1,7.632324E-2,1.96762E-2,-4.468647E-1,9.1339566E-2,9.9713874E-1,-6.755969E-2,-1.0407028E-1,-3.7975114E-2,4.6064627E-1,4.6064627E-1,4.6064627E-1,6.7295444E-1,8.9796714E-2,-1.2493012E0,-4.6349045E-2,-3.5072656E-3,-2.9272396E-2,5.59054E-2,-3.9762314E-3,4.0106717E-2,-8.359196E-2,-1.1727687E0,2.6428315E-3,-9.014102E-2,-1.7513499E-3,-1.9216065E-1,5.8653276E-2,1.3181458E-2,6.877178E-2,-2.2408973E-2,-2.7534038E-2,1.0518724E-1,-2.487625E-2,-7.506453E-2],"split_indices":[7,2,0,6,5,4,3,4,4,3,4,6,0,4,4,4,0,0,0,0,0,6,6,1,5,4,0,2,4,0,0,0,0,0,0,0,0,7,7,7,4,0,4,0,0,0,0,0,0,0,4,0,0,0,1,0,0,0,0,0,0,0,0],"split_type":[0,0,0,0,0,0,0,0,0,0,0,0,0,0,0,0,0,0,0,0,0,0,0,0,0,0,0,0,0,0,0,0,0,0,0,0,0,0,0,0,0,0,0,0,0,0,0,0,0,0,0,0,0,0,0,0,0,0,0,0,0,0,0],"sum_hessian":[6.0911453E1,2.8466011E1,3.2445442E1,9.020698E0,1.9445314E1,1.4765291E1,1.7680151E1,4.6995497E0,4.321148E0,9.355974E0,1.0089339E1,1.2235649E1,2.5296419E0,1.0782729E1,6.897423E0,3.5478036E0,1.151746E0,1.6513205E0,2.6698275E0,7.482381E0,1.8735939E0,5.894335E0,4.195005E0,3.9148417E0,8.320807E0,9.227976E0,1.5547532E0,4.2714796E0,2.6259432E0,1.1518229E0,2.3959808E0,4.393056E0,1.5012788E0,2.3470592E0,1.8479456E0,1.8672923E0,2.0475495E0,4.63734E0,3.6834671E0,6.3742385E0,2.853737E0,1.4116313E0,2.8598485E0,1.1629162E0,1.4630269E0,2.481642E0,1.911414E0,1.1896979E0,1.1573613E0,2.1004345E0,2.5369053E0,1.123027E0,2.5604403E0,1.172237E0,5.2020016E0,1.4397238E0,1.4140133E0,1.0946883E0,1.7651602E0,1.0699344E0,1.4669709E0,2.9971733E0,2.2048283E0],"tree_param":{"num_deleted":"0","num_feature":"8","num_nodes":"63","size_leaf_vector":"1"}},{"base_weights":[-1.1821337E-2,2.810276E-1,-2.6860985E-1,1.5434057E-1,8.129516E-1,-4.6569923E-1,-8.865001E-2,5.357849E-1,-1.06362775E-1,9.5135495E-2,3.4796976E-2,-5.66009E-1,3.3713363E-3,3.5117942E-1,-2.3760751E-1,3.512808E-3,6.552561E-2,3.2226905E-1,-5.7773656E-1,-7.857602E-2,-3.6323866E-1,-1.7026635E-2,6.381334E-1,-1.1907876E-1,-7.5574785E-2,-9.480932E-3,6.018735E-1,-7.79061E-1,1.884182E-3,3.3246823E-2,-5.826259E-1,1.8955966E-2,7.584018E-2,-6.709332E-2,4.107838E-2,2.308343E-1,-3.2687046E-2,7.7658504E-2,1.2500293E-2,-1.1047586E-1,-1.8162306E-1,-9.062877E-2,-3.3314314E-1,-3.1410557E-1,3.3628175E-1,4.0191032E-2,-5.2343E-3,4.7920976E-2,-7.717171E-2,-5.976097E-2,3.686118E-4,-5.3284824E-2,1.7502492E-2,7.703945E-2,-2.2723889E-2],"categories":[],"categories_nodes":[],"categories_segments":[],"categories_sizes":[],"default_left":[0,0,0,0,0,0,0,0,0,0,0,0,0,0,0,0,0,0,0,0,0,0,0,0,0,0,0,0,0,0,0,0,0,0,0,0,0,0,0,0,0,0,0,0,0,0,0,0,0,0,0,0,0,0,0],"id":13,"left_children":[1,3,5,7,9,11,13,15,17,-1,-1,19,-1,21,23,-1,-1,25,27,-1,29,-1,31,33,-1,35,37,39,-1,-1,41,-1,-1,-1,43,45,-1,-1,-1,-1,47,-1,49,51,53,-1,-1,-1,-1,-1,-1,-1,-1,-1,-1],"loss_changes":[4.6461115E0,1.8210003E0,1.1254337E0,2.499611E0,1.1438608E-2,7.9381895E-1,1.2908822E0,5.833671E-1,3.3027484E0,0E0,0E0,2.909341E-1,0E0,8.666976E-1,7.921414E-1,0E0,0E0,8.146288E-1,9.400122E-1,0E0,1.5043173E0,0E0,4.3896437E-2,1.1656368E0,0E0,4.547559E-1,2.9848516E-1,9.2482424E-1,0E0,0E0,2.5455737E-1,0E0,0E0,0E0,1.2508659E0,1.8653408E-1,0E0,0E0,0E0,0E0,1.6322641E0,0E0,4.89739E-1,6.7901325E-1,1.7524085E0,0E0,0E0,0E0,0E0,0E0,0E0,0E0,0E0,0E0,0E0],"parents":[2147483647,0,0,1,1,2,2,3,3,4,4,5,5,6,6,7,7,8,8,11,11,13,13,14,14,17,17,18,18,20,20,22,22,23,23,25,25,26,26,27,27,30,30,34,34,35,35,40,40,42,42,43,43,44,44],"right_children":[2,4,6,8,10,12,14,16,18,-1,-1,20,-1,22,24,-1,-1,26,28,-1,30,-1,32,34,-1,36,38,40,-1,-1,42,-1,-1,-1,44,46,-1,-1,-1,-1,48,-1,50,52,54,-1,-1,-1,-1,-1,-1,-1,-1,-1,-1],"split_conditions":[-1.0009907E0,1.4103786E0,-4.468647E-1,-3.3091024E-1,1.8120022E0,6.7295444E-1,-8.666383E-1,-1.1727687E0,2.3191088E-1,9.5135495E-2,3.4796976E-2,-5.60508E-1,3.3713363E-3,1.7221814E0,1.4103786E0,3.512808E-3,6.552561E-2,2.6017013E-1,1.7221814E0,-7.857602E-2,-2.3490451E-1,-1.7026635E-2,8.8899165E-1,-6.3704056E-1,-7.5574785E-2,-1.9216065E-1,-4.468647E-1,1.0356973E0,1.884182E-3,3.3246823E-2,8.8899165E-1,1.8955966E-2,7.584018E-2,-6.709332E-2,6.649427E-1,-4.468647E-1,-3.2687046E-2,7.7658504E-2,1.2500293E-2,-1.1047586E-1,1.2828527E-1,-9.062877E-2,5.576326E-1,5.576326E-1,8.8899165E-1,4.0191032E-2,-5.2343E-3,4.7920976E-2,-7.717171E-2,-5.976097E-2,3.686118E-4,-5.3284824E-2,1.7502492E-2,7.703945E-2,-2.2723889E-2],"split_indices":[7,4,0,4,4,4,4,4,5,0,0,4,0,3,4,0,0,4,3,0,4,0,6,4,0,1,0,6,0,0,6,0,0,0,2,0,0,0,0,0,4,0,4,4,6,0,0,0,0,0,0,0,0,0,0],"split_type":[0,0,0,0,0,0,0,0,0,0,0,0,0,0,0,0,0,0,0,0,0,0,0,0,0,0,0,0,0,0,0,0,0,0,0,0,0,0,0,0,0,0,0,0,0,0,0,0,0,0,0,0,0,0,0],"sum_hessian":[5.977938E1,2.7884598E1,3.1894781E1,2.3562849E1,4.32175E0,1.4465063E1,1.7429718E1,9.137822E0,1.4425026E1,2.524362E0,1.7973881E0,1.1934587E1,2.5304768E0,4.0660977E0,1.336362E1,2.009756E0,7.128066E0,7.7207117E0,6.704314E0,4.3476834E0,7.586903E0,1.5876682E0,2.4784296E0,1.1876577E1,1.4870427E0,3.972931E0,3.7477808E0,4.7839985E0,1.9203154E0,1.6953328E0,5.8915706E0,1.0686704E0,1.409759E0,1.9541013E0,9.922476E0,2.416192E0,1.5567387E0,2.2828922E0,1.4648886E0,2.5465617E0,2.2374368E0,1.4185611E0,4.4730096E0,4.4746356E0,5.4478407E0,1.2448511E0,1.171341E0,1.1440978E0,1.0933392E0,2.0719585E0,2.4010508E0,3.0301514E0,1.444484E0,2.8698885E0,2.577952E0],"tree_param":{"num_deleted":"0","num_feature":"8","num_nodes":"55","size_leaf_vector":"1"}},{"base_weights":[-1.2346485E-2,2.6272044E-1,-2.5340748E-1,1.4210945E-1,7.703635E-1,-5.7091217E-2,-4.3276682E-1,4.968499E-1,-1.00418724E-1,9.027614E-2,3.2824095E-2,-4.3833E-1,2.1657205E-1,-6.8762743E-1,-4.6206646E-2,2.2290662E-1,7.992335E-1,3.0384573E-1,-5.492921E-1,-1.0118715E-1,-5.0351102E-2,-5.3457224E-1,4.841454E-1,9.250873E-2,-1.21088065E-1,1.9731219E-1,-4.2625528E-2,-1.5129994E-1,7.215359E-2,2.4723554E-2,9.073016E-2,-8.01147E-3,5.6963897E-1,-7.4557865E-1,1.7602539E-3,-9.188083E-2,3.9419675E-1,5.4834075E-3,-8.8298075E-2,-2.6769713E-1,1.1651148E-1,-7.0011154E-2,4.834402E-2,4.6583522E-2,-7.181522E-2,3.5550863E-2,-6.3376896E-2,2.191122E-1,-3.064659E-2,7.378647E-2,1.1785846E-2,-1.0589748E-1,-1.750165E-1,-1.4465541E-2,7.6002054E-2,3.5140544E-2,-9.344321E-2,4.538921E-2,-6.939886E-2,3.8275834E-2,-4.9483604E-3,4.559895E-2,-7.429075E-2],"categories":[],"categories_nodes":[],"categories_segments":[],"categories_sizes":[],"default_left":[0,0,0,0,0,0,0,0,0,0,0,0,0,0,0,0,0,0,0,0,0,0,0,0,0,0,0,0,0,0,0,0,0,0,0,0,0,0,0,0,0,0,0,0,0,0,0,0,0,0,0,0,0,0,0,0,0,0,0,0,0,0,0],"id":14,"left_children":[1,3,5,7,9,11,13,15,17,-1,-1,19,21,23,25,27,29,31,33,-1,35,37,39,41,-1,43,-1,45,-1,-1,-1,47,49,51,-1,-1,53,-1,-1,55,-1,-1,-1,-1,57,-1,-1,59,-1,-1,-1,-1,61,-1,-1,-1,-1,-1,-1,-1,-1,-1,-1],"loss_changes":[4.030268E0,1.6300083E0,1.1149659E0,2.1304078E0,9.700298E-3,1.8273369E0,1.6195931E0,6.491823E-1,2.9241774E0,0E0,0E0,1.5666454E0,2.3361106E0,4.206243E0,7.997105E-1,1.3457083E0,3.58088E-2,7.205992E-1,8.539345E-1,0E0,2.442535E0,7.0348716E-1,4.482288E0,1.8739804E0,0E0,4.2341655E-1,0E0,1.3531594E0,0E0,0E0,0E0,4.0343142E-1,2.685325E-1,8.2242274E-1,0E0,0E0,9.5045745E-1,0E0,0E0,2.2620196E0,0E0,0E0,0E0,0E0,1.4798839E0,0E0,0E0,1.6839513E-1,0E0,0E0,0E0,0E0,1.4840631E0,0E0,0E0,0E0,0E0,0E0,0E0,0E0,0E0,0E0,0E0],"parents":[2147483647,0,0,1,1,2,2,3,3,4,4,5,5,6,6,7,7,8,8,11,11,12,12,13,13,14,14,15,15,16,16,17,17,18,18,20,20,21,21,22,22,23,23,25,25,27,27,31,31,32,32,33,33,36,36,39,39,44,44,47,47,52,52],"right_children":[2,4,6,8,10,12,14,16,18,-1,-1,20,22,24,26,28,30,32,34,-1,36,38,40,42,-1,44,-1,46,-1,-1,-1,48,50,52,-1,-1,54,-1,-1,56,-1,-1,-1,-1,58,-1,-1,60,-1,-1,-1,-1,62,-1,-1,-1,-1,-1,-1,-1,-1,-1,-1],"split_conditions":[-1.0009907E0,1.4103786E0,2.3191088E-1,-3.3091024E-1,1.8120022E0,6.4805084E-1,-1.9216065E-1,-4.468647E-1,2.3191088E-1,9.027614E-2,3.2824095E-2,-4.468647E-1,4.6064627E-1,8.8899165E-1,1.7221814E0,-5.60508E-1,6.4805084E-1,2.6017013E-1,1.7221814E0,-1.0118715E-1,8.826966E-3,4.344156E-1,-5.60508E-1,-4.468647E-1,-1.21088065E-1,4.6064627E-1,-4.2625528E-2,-1.9216065E-1,7.215359E-2,2.4723554E-2,9.073016E-2,-1.9216065E-1,-4.468647E-1,1.0356973E0,1.7602539E-3,-9.188083E-2,1.0439446E0,5.4834075E-3,-8.8298075E-2,-8.666383E-1,1.1651148E-1,-7.0011154E-2,4.834402E-2,4.6583522E-2,8.826966E-3,3.5550863E-2,-6.3376896E-2,-4.468647E-1,-3.064659E-2,7.378647E-2,1.1785846E-2,-1.0589748E-1,1.2828527E-1,-1.4465541E-2,7.6002054E-2,3.5140544E-2,-9.344321E-2,4.538921E-2,-6.939886E-2,3.8275834E-2,-4.9483604E-3,4.559895E-2,-7.429075E-2],"split_indices":[7,4,5,4,4,2,1,0,5,0,0,0,7,6,3,4,2,4,3,0,6,4,4,0,0,7,0,1,0,0,0,1,0,6,0,0,1,0,0,4,0,0,0,0,6,0,0,0,0,0,0,0,4,0,0,0,0,0,0,0,0,0,0],"split_type":[0,0,0,0,0,0,0,0,0,0,0,0,0,0,0,0,0,0,0,0,0,0,0,0,0,0,0,0,0,0,0,0,0,0,0,0,0,0,0,0,0,0,0,0,0,0,0,0,0,0,0,0,0,0,0,0,0,0,0,0,0,0,0],"sum_hessian":[5.877708E1,2.7410265E1,3.1366816E1,2.3182316E1,4.227949E0,1.5604903E1,1.5761912E1,8.987653E0,1.4194662E1,2.4518414E0,1.7761078E0,6.269368E0,9.335535E0,9.029736E0,6.7321763E0,5.6270304E0,3.3606224E0,7.63843E0,6.5562325E0,1.8808651E0,4.388503E0,2.1899507E0,7.145584E0,3.9555197E0,5.074216E0,4.3961415E0,2.3360348E0,3.6125138E0,2.0145166E0,1.0884968E0,2.2721255E0,3.960916E0,3.6775143E0,4.6358705E0,1.920362E0,1.1246257E0,3.2638774E0,1.1266317E0,1.0633191E0,3.6845005E0,3.461084E0,1.045292E0,2.9102278E0,1.834676E0,2.5614655E0,1.8901533E0,1.7223605E0,2.400205E0,1.5607111E0,2.2182763E0,1.459238E0,2.4397528E0,2.1961174E0,1.5642862E0,1.6995912E0,2.155727E0,1.5287734E0,1.5349653E0,1.0265003E0,1.2273738E0,1.172831E0,1.1335894E0,1.062528E0],"tree_param":{"num_deleted":"0","num_feature":"8","num_nodes":"63","size_leaf_vector":"1"}},{"base_weights":[-1.2967735E-2,2.4954128E-1,-2.4307321E-1,-8.185526E-2,4.0216488E-1,-6.1952204E-2,-4.0882802E-1,2.6575997E-1,-4.3181807E-1,6.704875E-1,1.23535484E-1,-4.2042574E-1,1.9461814E-1,-6.557292E-1,-4.4560503E-2,4.6379474E-1,-2.9843075E-2,-6.816545E-2,-2.5047837E-3,4.0035793E-1,9.199794E-2,-1.2693183E-1,4.5847464E-1,-9.701891E-2,-5.1520403E-2,-5.1049775E-1,4.4813842E-1,7.9512134E-2,-1.1640848E-1,1.8221018E-1,-3.9728276E-2,7.176478E-2,1.6800454E-2,1.7250492E-1,7.6414905E-2,1.5193799E-1,-6.344103E-2,7.677337E-2,6.391273E-2,-8.804243E-2,3.7246424E-1,5.188172E-3,-8.467092E-2,-2.569511E-1,1.0843381E0,-6.767144E-2,4.4924192E-2,4.3510307E-2,-7.229029E-2,4.1163128E-2,-2.3413438E-2,-9.999363E-3,3.383226E-2,2.961216E-2,-1.9402564E-2,-1.3624057E-2,7.1984135E-2,3.286619E-2,-8.951463E-2,1.21501386E-1,3.3537135E-2,-2.9008074E-2,1.4507691E-2,2.2455025E-2,-2.5201013E-2],"categories":[],"categories_nodes":[],"categories_segments":[],"categories_sizes":[],"default_left":[0,0,0,0,0,0,0,0,0,0,0,0,0,0,0,0,0,0,0,0,0,0,0,0,0,0,0,0,0,0,0,0,0,0,0,0,0,0,0,0,0,0,0,0,0,0,0,0,0,0,0,0,0,0,0,0,0,0,0,0,0,0,0,0,0],"id":15,"left_children":[1,3,5,7,9,11,13,15,17,19,21,23,25,27,29,31,-1,-1,-1,33,-1,35,37,-1,39,41,43,45,-1,47,-1,-1,-1,49,-1,51,-1,-1,53,-1,55,-1,-1,57,59,-1,-1,-1,61,-1,-1,63,-1,-1,-1,-1,-1,-1,-1,-1,-1,-1,-1,-1,-1],"loss_changes":[3.6051714E0,1.4442334E0,9.2864656E-1,1.2862065E0,1.3581257E0,1.5867757E0,1.4469624E0,7.473307E-1,5.092982E-1,2.7817345E-1,9.5424974E-1,1.3985553E0,2.0558095E0,3.7217035E0,6.88577E-1,2.1173221E-1,0E0,0E0,0E0,3.9671695E-1,0E0,1.0720844E0,5.3502285E-1,0E0,2.2012205E0,6.4338154E-1,3.8897386E0,1.6754962E0,0E0,3.7736696E-1,0E0,0E0,0E0,6.0320485E-1,0E0,1.6202694E-1,0E0,0E0,2.4876864E-1,0E0,8.454258E-1,0E0,0E0,2.0233889E0,2.5443554E-2,0E0,0E0,0E0,2.0949356E-1,0E0,0E0,2.713715E-1,0E0,0E0,0E0,0E0,0E0,0E0,0E0,0E0,0E0,0E0,0E0,0E0,0E0],"parents":[2147483647,0,0,1,1,2,2,3,3,4,4,5,5,6,6,7,7,8,8,9,9,10,10,11,11,12,12,13,13,14,14,15,15,19,19,21,21,22,22,24,24,25,25,26,26,27,27,29,29,33,33,35,35,38,38,40,40,43,43,44,44,48,48,51,51],"right_children":[2,4,6,8,10,12,14,16,18,20,22,24,26,28,30,32,-1,-1,-1,34,-1,36,38,-1,40,42,44,46,-1,48,-1,-1,-1,50,-1,52,-1,-1,54,-1,56,-1,-1,58,60,-1,-1,-1,62,-1,-1,64,-1,-1,-1,-1,-1,-1,-1,-1,-1,-1,-1,-1,-1],"split_conditions":[-1.0009907E0,6.4805084E-1,2.3191088E-1,8.826966E-3,2.3191088E-1,6.4805084E-1,-1.9216065E-1,6.7295444E-1,2.3191088E-1,4.344156E-1,9.9713874E-1,-4.468647E-1,4.6064627E-1,8.8899165E-1,1.7221814E0,-6.875645E-1,-2.9843075E-2,-6.816545E-2,-2.5047837E-3,8.826966E-3,9.199794E-2,4.344156E-1,-3.3091024E-1,-9.701891E-2,8.826966E-3,4.344156E-1,-5.60508E-1,-4.468647E-1,-1.1640848E-1,4.6064627E-1,-3.9728276E-2,7.176478E-2,1.6800454E-2,-4.468647E-1,7.6414905E-2,-1.9216065E-1,-6.344103E-2,7.677337E-2,-1.9216065E-1,-8.804243E-2,1.0439446E0,5.188172E-3,-8.467092E-2,-8.666383E-1,-4.468647E-1,-6.767144E-2,4.4924192E-2,4.3510307E-2,-4.468647E-1,4.1163128E-2,-2.3413438E-2,-3.3091024E-1,3.383226E-2,2.961216E-2,-1.9402564E-2,-1.3624057E-2,7.1984135E-2,3.286619E-2,-8.951463E-2,1.21501386E-1,3.3537135E-2,-2.9008074E-2,1.4507691E-2,2.2455025E-2,-2.5201013E-2],"split_indices":[7,2,5,6,5,2,1,4,5,4,0,0,7,6,3,4,0,0,0,6,0,4,4,0,6,4,4,0,0,7,0,0,0,0,0,1,0,0,1,0,1,0,0,4,0,0,0,0,0,0,0,4,0,0,0,0,0,0,0,0,0,0,0,0,0],"split_type":[0,0,0,0,0,0,0,0,0,0,0,0,0,0,0,0,0,0,0,0,0,0,0,0,0,0,0,0,0,0,0,0,0,0,0,0,0,0,0,0,0,0,0,0,0,0,0,0,0,0,0,0,0,0,0,0,0,0,0,0,0,0,0,0,0],"sum_hessian":[5.767939E1,2.6903202E1,3.0776186E1,8.629457E0,1.8273745E1,1.5362869E1,1.5413318E1,4.449957E0,4.179501E0,8.592607E0,9.681137E0,6.142328E0,9.220541E0,8.709722E0,6.703596E0,3.425522E0,1.0244346E0,2.1705723E0,2.0089285E0,5.376289E0,3.2163181E0,5.894365E0,3.7867725E0,1.8120283E0,4.3302994E0,2.1703925E0,7.0501485E0,3.9051876E0,4.804534E0,4.374548E0,2.3290482E0,1.0759311E0,2.349591E0,4.2122316E0,1.164057E0,4.256134E0,1.6382307E0,1.5926558E0,2.1941168E0,1.1010883E0,3.2292113E0,1.1284786E0,1.0419139E0,3.6267724E0,3.4233763E0,1.0097013E0,2.8954864E0,1.838262E0,2.5362859E0,2.6447165E0,1.5675154E0,2.7838128E0,1.4723214E0,1.0767452E0,1.1173716E0,1.5569662E0,1.6722451E0,2.1442266E0,1.4825457E0,2.385E0,1.0383762E0,1.0998125E0,1.4364734E0,1.450337E0,1.3334756E0],"tree_param":{"num_deleted":"0","num_feature":"8","num_nodes":"65","size_leaf_vector":"1"}},{"base_weights":[-1.2472391E-2,2.3726974E-1,-2.3185204E-1,1.2356329E-1,7.237975E-1,-4.1135085E-1,-7.322367E-2,4.5369554E-1,-9.970408E-2,8.5434765E-2,2.951688E-2,-5.0616616E-1,4.346954E-3,2.8275091E-2,-7.306559E-2,2.023257E-1,7.4174947E-1,2.7445567E-1,-5.1462924E-1,-7.2537374E-1,-3.266406E-1,5.5283066E-2,-6.3640155E-2,-1.5563133E-1,6.8736576E-2,2.0929439E-2,8.538978E-2,-7.852314E-3,5.2070427E-1,-9.211016E-2,-1.7735507E-1,-9.0167925E-2,-3.1402346E-2,-5.91228E-2,-5.43E-1,-1.67584E-1,2.136919E-1,3.24281E-2,-6.0106695E-2,2.0472108E-1,-2.856085E-2,6.929133E-2,8.555374E-3,-5.3954357E-1,3.2279354E-2,5.7748277E-2,-7.532757E-2,-8.548296E-2,1.7520318E-2,4.3873273E-2,-4.4021428E-1,4.2388834E-2,9.905083E-3,3.5751306E-2,-4.3003843E-3,-9.632076E-2,2.0510374E-2,-2.8857613E-2,5.8882624E-2,-9.604844E-2,7.2325887E-3,3.216235E-2,-2.9239556E-2],"categories":[],"categories_nodes":[],"categories_segments":[],"categories_sizes":[],"default_left":[0,0,0,0,0,0,0,0,0,0,0,0,0,0,0,0,0,0,0,0,0,0,0,0,0,0,0,0,0,0,0,0,0,0,0,0,0,0,0,0,0,0,0,0,0,0,0,0,0,0,0,0,0,0,0,0,0,0,0,0,0,0,0],"id":16,"left_children":[1,3,5,7,9,11,13,15,17,-1,-1,19,-1,21,-1,23,25,27,29,31,33,-1,35,37,-1,-1,-1,39,41,-1,43,-1,-1,45,47,49,51,-1,-1,53,-1,-1,-1,55,-1,-1,-1,-1,-1,57,59,-1,61,-1,-1,-1,-1,-1,-1,-1,-1,-1,-1],"loss_changes":[3.211731E0,1.4284726E0,8.5764706E-1,1.7733946E0,2.7158737E-2,6.4344144E-1,1.2062986E0,5.47897E-1,2.439954E0,0E0,0E0,2.3545003E-1,0E0,8.2371104E-1,0E0,1.239445E0,6.711817E-2,5.9068054E-1,8.468306E-1,4.9396515E-2,4.551509E-1,0E0,4.6282125E-1,1.1714814E0,0E0,0E0,0E0,3.487466E-1,2.7955937E-1,0E0,1.1280137E0,0E0,0E0,2.5942876E0,1.1647455E0,6.7277443E-1,1.8761057E-1,0E0,0E0,1.4283241E-1,0E0,0E0,0E0,1.279127E0,0E0,0E0,0E0,0E0,0E0,1.4912027E0,1.4139527E0,0E0,4.047743E-1,0E0,0E0,0E0,0E0,0E0,0E0,0E0,0E0,0E0,0E0],"parents":[2147483647,0,0,1,1,2,2,3,3,4,4,5,5,6,6,7,7,8,8,11,11,13,13,15,15,16,16,17,17,18,18,19,19,20,20,22,22,23,23,27,27,28,28,30,30,33,33,34,34,35,35,36,36,39,39,43,43,49,49,50,50,52,52],"right_children":[2,4,6,8,10,12,14,16,18,-1,-1,20,-1,22,-1,24,26,28,30,32,34,-1,36,38,-1,-1,-1,40,42,-1,44,-1,-1,46,48,50,52,-1,-1,54,-1,-1,-1,56,-1,-1,-1,-1,-1,58,60,-1,62,-1,-1,-1,-1,-1,-1,-1,-1,-1,-1],"split_conditions":[-1.0009907E0,1.4103786E0,-4.468647E-1,-3.3091024E-1,1.8120022E0,6.7295444E-1,1.4103786E0,-4.468647E-1,2.3191088E-1,8.5434765E-2,2.951688E-2,8.8899165E-1,4.346954E-3,-1.2493012E0,-7.306559E-2,-5.60508E-1,6.4805084E-1,2.6017013E-1,6.4805084E-1,-1.9216065E-1,-1.9216065E-1,5.5283066E-2,6.640134E-1,-1.9216065E-1,6.8736576E-2,2.0929439E-2,8.538978E-2,-1.9216065E-1,-4.468647E-1,-9.211016E-2,-1.9216065E-1,-9.0167925E-2,-3.1402346E-2,2.3191088E-1,5.576326E-1,-3.3091024E-1,6.4805084E-1,3.24281E-2,-6.0106695E-2,-4.468647E-1,-2.856085E-2,6.929133E-2,8.555374E-3,8.826966E-3,3.2279354E-2,5.7748277E-2,-7.532757E-2,-8.548296E-2,1.7520318E-2,-6.3704056E-1,6.4805084E-1,4.2388834E-2,8.826966E-3,3.5751306E-2,-4.3003843E-3,-9.632076E-2,2.0510374E-2,-2.8857613E-2,5.8882624E-2,-9.604844E-2,7.2325887E-3,3.216235E-2,-2.9239556E-2],"split_indices":[7,4,0,4,4,4,4,0,5,0,0,6,0,4,0,4,2,4,2,1,1,0,4,1,0,0,0,1,0,0,1,0,0,5,4,4,2,0,0,0,0,0,0,6,0,0,0,0,0,4,2,0,6,0,0,0,0,0,0,0,0,0,0],"split_type":[0,0,0,0,0,0,0,0,0,0,0,0,0,0,0,0,0,0,0,0,0,0,0,0,0,0,0,0,0,0,0,0,0,0,0,0,0,0,0,0,0,0,0,0,0,0,0,0,0,0,0,0,0,0,0,0,0,0,0,0,0,0,0],"sum_hessian":[5.6616627E1,2.643801E1,3.017862E1,2.2446098E1,3.9919107E0,1.3410524E1,1.6768095E1,8.639422E0,1.3806676E1,2.2985997E0,1.693311E0,1.1003715E1,2.4068098E0,1.5354548E1,1.413546E0,5.522558E0,3.1168642E0,7.437991E0,6.368685E0,3.5853546E0,7.4183598E0,1.5416816E0,1.3812867E1,3.568305E0,1.9542532E0,1.0409403E0,2.075924E0,3.9163096E0,3.5216818E0,2.1030893E0,4.2655954E0,1.6753136E0,1.910041E0,3.8863456E0,3.5320141E0,1.0335032E1,3.4778347E0,1.848607E0,1.7196981E0,2.3674164E0,1.5488931E0,2.0987551E0,1.4229265E0,2.428327E0,1.8372684E0,2.1148753E0,1.7714704E0,2.330098E0,1.2019163E0,6.293076E0,4.0419564E0,1.1803263E0,2.2975082E0,1.190162E0,1.1772546E0,1.3606706E0,1.0676563E0,4.2008176E0,2.0922585E0,1.5721387E0,2.4698176E0,1.0996652E0,1.1978431E0],"tree_param":{"num_deleted":"0","num_feature":"8","num_nodes":"63","size_leaf_vector":"1"}},{"base_weights":[-1.2041328E-2,2.2517419E-1,-2.2016874E-1,1.17203906E-1,6.866191E-1,-3.9390716E-1,-6.8525225E-2,4.3221024E-1,-9.5016345E-2,8.355373E-2,2.8121088E-2,-4.868854E-1,4.038846E-3,2.8135339E-2,-7.070189E-2,1.9051075E-1,7.143274E-1,2.5920537E-1,-4.9119323E-1,-6.929139E-1,-3.140187E-1,5.2754093E-2,-5.862703E-2,-1.4656462E-1,6.526291E-2,1.9972337E-2,8.2549535E-2,3.9138135E-1,-1.69899E-2,-6.8791914E-1,4.179848E-3,-8.668819E-2,-2.9572174E-2,-5.8745664E-2,-5.1946455E-1,-1.5698689E-1,2.0353071E-1,3.0532409E-2,-5.625639E-2,7.180512E-2,2.5809782E-3,-9.842657E-2,-1.648551E-1,5.417932E-2,-7.306184E-2,-8.2800515E-2,1.6572142E-2,-3.5687557E-1,1.2145373E-1,4.032575E-2,9.89338E-3,-5.048412E-2,5.581833E-2,4.3705188E-2,-7.104409E-2,-1.584979E-2,-6.271934E-2,-2.7417505E-2,3.726928E-2,-3.6943205E-2,3.8865585E-2],"categories":[],"categories_nodes":[],"categories_segments":[],"categories_sizes":[],"default_left":[0,0,0,0,0,0,0,0,0,0,0,0,0,0,0,0,0,0,0,0,0,0,0,0,0,0,0,0,0,0,0,0,0,0,0,0,0,0,0,0,0,0,0,0,0,0,0,0,0,0,0,0,0,0,0,0,0,0,0,0,0],"id":17,"left_children":[1,3,5,7,9,11,13,15,17,-1,-1,19,-1,21,-1,23,25,27,29,31,33,-1,35,37,-1,-1,-1,39,-1,41,-1,-1,-1,43,45,47,49,-1,-1,-1,51,-1,53,-1,-1,-1,-1,55,57,-1,59,-1,-1,-1,-1,-1,-1,-1,-1,-1,-1],"loss_changes":[2.8463967E0,1.2631756E0,7.813163E-1,1.5827074E0,6.1340332E-2,5.8853126E-1,1.1056417E0,5.0915504E-1,2.1759484E0,0E0,0E0,1.9840789E-1,0E0,7.346431E-1,0E0,1.1019409E0,6.410813E-2,5.407519E-1,7.8751636E-1,5.4601908E-2,3.9848292E-1,0E0,4.1195768E-1,1.0274856E0,0E0,0E0,0E0,8.4851897E-1,0E0,6.6592026E-1,0E0,0E0,0E0,2.3225603E0,1.0684347E0,6.712053E-1,1.6834988E-1,0E0,0E0,0E0,1.4265712E0,0E0,1.339503E0,0E0,0E0,0E0,0E0,2.6634777E-1,6.4491737E-1,0E0,6.159418E-1,0E0,0E0,0E0,0E0,0E0,0E0,0E0,0E0,0E0,0E0],"parents":[2147483647,0,0,1,1,2,2,3,3,4,4,5,5,6,6,7,7,8,8,11,11,13,13,15,15,16,16,17,17,18,18,19,19,20,20,22,22,23,23,27,27,29,29,33,33,34,34,35,35,36,36,40,40,42,42,47,47,48,48,50,50],"right_children":[2,4,6,8,10,12,14,16,18,-1,-1,20,-1,22,-1,24,26,28,30,32,34,-1,36,38,-1,-1,-1,40,-1,42,-1,-1,-1,44,46,48,50,-1,-1,-1,52,-1,54,-1,-1,-1,-1,56,58,-1,60,-1,-1,-1,-1,-1,-1,-1,-1,-1,-1],"split_conditions":[-1.0009907E0,1.4103786E0,-4.468647E-1,-3.3091024E-1,8.826966E-3,6.7295444E-1,1.4103786E0,-4.468647E-1,2.3191088E-1,8.355373E-2,2.8121088E-2,8.8899165E-1,4.038846E-3,-1.2493012E0,-7.070189E-2,-5.60508E-1,6.4805084E-1,8.826966E-3,1.7221814E0,-1.9216065E-1,-1.9216065E-1,5.2754093E-2,6.640134E-1,-1.9216065E-1,6.526291E-2,1.9972337E-2,8.2549535E-2,-4.468647E-1,-1.69899E-2,1.0356973E0,4.179848E-3,-8.668819E-2,-2.9572174E-2,2.3191088E-1,5.576326E-1,1.7221814E0,2.3191088E-1,3.0532409E-2,-5.625639E-2,7.180512E-2,-1.9216065E-1,-9.842657E-2,1.2828527E-1,5.417932E-2,-7.306184E-2,-8.2800515E-2,1.6572142E-2,-2.5437763E-1,-6.875645E-1,4.032575E-2,6.7295444E-1,-5.048412E-2,5.581833E-2,4.3705188E-2,-7.104409E-2,-1.584979E-2,-6.271934E-2,-2.7417505E-2,3.726928E-2,-3.6943205E-2,3.8865585E-2],"split_indices":[7,4,0,4,6,4,4,0,5,0,0,6,0,4,0,4,2,6,3,1,1,0,4,1,0,0,0,0,0,6,0,0,0,5,4,3,5,0,0,0,1,0,4,0,0,0,0,4,4,0,4,0,0,0,0,0,0,0,0,0,0],"split_type":[0,0,0,0,0,0,0,0,0,0,0,0,0,0,0,0,0,0,0,0,0,0,0,0,0,0,0,0,0,0,0,0,0,0,0,0,0,0,0,0,0,0,0,0,0,0,0,0,0,0,0,0,0,0,0,0,0,0,0,0,0],"sum_hessian":[5.564899E1,2.5968828E1,2.9680164E1,2.2060936E1,3.9078915E0,1.3087822E1,1.6592342E1,8.462751E0,1.3598186E1,2.0820982E0,1.8257931E0,1.0680207E1,2.407615E0,1.5240971E1,1.351372E0,5.460146E0,3.0026054E0,7.361765E0,6.23642E0,3.5001895E0,7.1800175E0,1.5039446E0,1.3737026E1,3.552064E0,1.9080818E0,1.0302231E0,1.9723824E0,5.695351E0,1.6664141E0,4.3428206E0,1.8935993E0,1.6117334E0,1.8884561E0,3.7751794E0,3.404838E0,1.0280881E1,3.456145E0,1.8301109E0,1.7219532E0,2.634776E0,3.0605748E0,2.2093582E0,2.1334624E0,2.095642E0,1.679537E0,2.2039545E0,1.2008835E0,5.8206344E0,4.4602466E0,1.1684303E0,2.2877147E0,1.6473973E0,1.4131776E0,1.1089574E0,1.024505E0,4.271935E0,1.5486991E0,1.6968724E0,2.763374E0,1.1553159E0,1.132399E0],"tree_param":{"num_deleted":"0","num_feature":"8","num_nodes":"61","size_leaf_vector":"1"}},{"base_weights":[-1.1971281E-2,2.1426943E-1,-2.0953557E-1,1.111539E-1,6.564745E-1,-3.776169E-1,-6.481237E-2,4.1218737E-1,-9.131491E-2,8.0902554E-2,2.632823E-2,-4.6886447E-1,3.7526356E-3,1.8634722E-1,-2.8406534E-1,1.7963344E-1,6.88368E-1,2.4371126E-1,-4.690841E-1,-6.6245264E-1,-3.0238327E-1,-1.8790221E-1,5.1443547E-1,-5.7730347E-1,-3.8942687E-2,-1.3806048E-1,6.2004935E-2,1.9060178E-2,7.987315E-2,-1.2185218E-2,4.7253233E-1,-8.6909376E-2,-1.5239349E-1,-8.345689E-2,-2.7848734E-2,-5.8696184E-2,-4.973212E-1,-5.3885883E-1,5.3686835E-2,7.978919E-2,1.9569997E-1,-9.150743E-2,-7.30643E-3,2.1526587E-1,-3.3232006E-1,2.8749375E-2,-5.2708775E-2,1.9937941E-1,-2.8601348E-2,6.34726E-2,7.5829863E-3,-5.0283647E-1,3.1733494E-2,5.0867926E-2,-7.089474E-2,-8.025823E-2,1.5676344E-2,-1.6903001E-3,-8.246433E-2,3.59672E-2,-8.479296E-3,5.007155E-2,-8.42782E-3,-7.363086E-2,1.7318388E-2,3.2328766E-2,-1.310837E-3,-9.055226E-2,1.9694062E-2],"categories":[],"categories_nodes":[],"categories_segments":[],"categories_sizes":[],"default_left":[0,0,0,0,0,0,0,0,0,0,0,0,0,0,0,0,0,0,0,0,0,0,0,0,0,0,0,0,0,0,0,0,0,0,0,0,0,0,0,0,0,0,0,0,0,0,0,0,0,0,0,0,0,0,0,0,0,0,0,0,0,0,0,0,0,0,0,0,0],"id":18,"left_children":[1,3,5,7,9,11,13,15,17,-1,-1,19,-1,21,23,25,27,29,31,33,35,37,39,41,43,45,-1,-1,-1,47,49,-1,51,-1,-1,53,55,57,-1,-1,59,-1,-1,61,63,-1,-1,65,-1,-1,-1,67,-1,-1,-1,-1,-1,-1,-1,-1,-1,-1,-1,-1,-1,-1,-1,-1,-1],"loss_changes":[2.5332515E0,1.1329517E0,7.1075296E-1,1.4181341E0,7.473183E-2,5.394684E-1,1.0137582E0,4.7296703E-1,1.9318112E0,0E0,0E0,1.6607428E-1,0E0,1.1693531E0,6.756041E-1,9.805213E-1,6.163609E-2,4.8993677E-1,7.659081E-1,5.945313E-2,3.4855497E-1,1.5136636E0,2.886094E-1,6.7395675E-1,5.460306E-1,9.020815E-1,0E0,0E0,0E0,3.3963957E-1,2.3436576E-1,0E0,1.0107183E0,0E0,0E0,2.0827773E0,9.811914E-1,5.442648E-1,0E0,0E0,1.9801086E-1,0E0,0E0,3.8555008E-1,8.109758E-1,0E0,0E0,9.22108E-2,0E0,0E0,0E0,1.121833E0,0E0,0E0,0E0,0E0,0E0,0E0,0E0,0E0,0E0,0E0,0E0,0E0,0E0,0E0,0E0,0E0,0E0],"parents":[2147483647,0,0,1,1,2,2,3,3,4,4,5,5,6,6,7,7,8,8,11,11,13,13,14,14,15,15,16,16,17,17,18,18,19,19,20,20,21,21,22,22,23,23,24,24,25,25,29,29,30,30,32,32,35,35,36,36,37,37,40,40,43,43,44,44,47,47,51,51],"right_children":[2,4,6,8,10,12,14,16,18,-1,-1,20,-1,22,24,26,28,30,32,34,36,38,40,42,44,46,-1,-1,-1,48,50,-1,52,-1,-1,54,56,58,-1,-1,60,-1,-1,62,64,-1,-1,66,-1,-1,-1,68,-1,-1,-1,-1,-1,-1,-1,-1,-1,-1,-1,-1,-1,-1,-1,-1,-1],"split_conditions":[-1.0009907E0,1.4103786E0,-4.468647E-1,-3.3091024E-1,8.826966E-3,6.7295444E-1,-3.3091024E-1,-4.468647E-1,2.3191088E-1,8.0902554E-2,2.632823E-2,8.8899165E-1,3.7526356E-3,1.7221814E0,6.649427E-1,-5.60508E-1,6.4805084E-1,2.6017013E-1,6.4805084E-1,-1.9216065E-1,-1.9216065E-1,2.3191088E-1,6.4805084E-1,5.576326E-1,8.826966E-3,-1.9216065E-1,6.2004935E-2,1.9060178E-2,7.987315E-2,-1.9216065E-1,-4.468647E-1,-8.6909376E-2,-1.9216065E-1,-8.345689E-2,-2.7848734E-2,2.3191088E-1,5.576326E-1,-1.9216065E-1,5.3686835E-2,7.978919E-2,-8.666383E-1,-9.150743E-2,-7.30643E-3,4.344156E-1,1.1053115E0,2.8749375E-2,-5.2708775E-2,-4.468647E-1,-2.8601348E-2,6.34726E-2,7.5829863E-3,8.826966E-3,3.1733494E-2,5.0867926E-2,-7.089474E-2,-8.025823E-2,1.5676344E-2,-1.6903001E-3,-8.246433E-2,3.59672E-2,-8.479296E-3,5.007155E-2,-8.42782E-3,-7.363086E-2,1.7318388E-2,3.2328766E-2,-1.310837E-3,-9.055226E-2,1.9694062E-2],"split_indices":[7,4,0,4,6,4,4,0,5,0,0,6,0,3,2,4,2,4,2,1,1,5,2,4,6,1,0,0,0,1,0,0,1,0,0,5,4,1,0,0,4,0,0,4,7,0,0,0,0,0,0,6,0,0,0,0,0,0,0,0,0,0,0,0,0,0,0,0,0],"split_type":[0,0,0,0,0,0,0,0,0,0,0,0,0,0,0,0,0,0,0,0,0,0,0,0,0,0,0,0,0,0,0,0,0,0,0,0,0,0,0,0,0,0,0,0,0,0,0,0,0,0,0,0,0,0,0,0,0,0,0,0,0,0,0,0,0,0,0,0,0],"sum_hessian":[5.467152E1,2.5446692E1,2.922483E1,2.1649677E1,3.7970145E0,1.2776723E1,1.6448107E1,8.2892685E0,1.3360408E1,1.9736809E0,1.8233336E0,1.0368373E1,2.4083493E0,7.7361927E0,8.711915E0,5.396035E0,2.8932333E0,7.2688584E0,6.0915494E0,3.4164743E0,6.951899E0,3.8134649E0,3.9227278E0,3.3496253E0,5.3622894E0,3.533598E0,1.8624375E0,1.0199674E0,1.8732659E0,3.8783488E0,3.3905094E0,1.9209334E0,4.170616E0,1.5487012E0,1.8677732E0,3.6678774E0,3.2840216E0,2.7421439E0,1.0713209E0,1.2805822E0,2.6421456E0,1.5180074E0,1.831618E0,3.015574E0,2.3467155E0,1.8122183E0,1.7213795E0,2.3413E0,1.5370488E0,1.98069E0,1.4098195E0,2.3482273E0,1.8223889E0,2.0750313E0,1.592846E0,2.0842648E0,1.1997569E0,1.3449243E0,1.3972195E0,1.4892604E0,1.1528851E0,1.2002281E0,1.8153459E0,1.050552E0,1.2961636E0,1.1495316E0,1.1917685E0,1.3038893E0,1.044338E0],"tree_param":{"num_deleted":"0","num_feature":"8","num_nodes":"69","size_leaf_vector":"1"}},{"base_weights":[-1.1766271E-2,2.039954E-1,-1.9990003E-1,1.0558182E-1,6.278818E-1,-1.4145379E-1,-6.5157086E-2,3.934691E-1,-8.72991E-2,7.704515E-2,2.1150013E-2,-2.0952837E-1,3.5728613E-1,1.6958492E-1,6.637192E-1,2.304721E-1,-4.488898E-1,-4.5196897E-1,-1.4592543E-2,4.7345545E-2,8.65583E-3,-1.3007726E-1,5.894155E-2,7.777708E-2,1.8690294E-2,3.5688877E-1,-1.6725615E-2,-6.463028E-1,5.741782E-3,-6.3378716E-1,-2.9163283E-1,2.2053105E-1,-2.4846281E-1,2.7071614E-2,-4.9429636E-2,6.623344E-2,6.901045E-3,-1.0718192E-2,-8.9496724E-2,-8.044286E-2,-2.6225377E-2,-5.8926318E-2,-4.7644845E-1,1.4824746E-3,8.1531964E-2,4.025531E-1,-6.1479014E-1,-4.707299E-2,5.363045E-2,4.778738E-2,-6.881758E-2,-7.783909E-2,1.4829858E-2,-4.266661E-2,4.803877E-2,-6.3818614E-3,7.209869E-2,-9.230489E-2,-2.9215097E-2],"categories":[],"categories_nodes":[],"categories_segments":[],"categories_sizes":[],"default_left":[0,0,0,0,0,0,0,0,0,0,0,0,0,0,0,0,0,0,0,0,0,0,0,0,0,0,0,0,0,0,0,0,0,0,0,0,0,0,0,0,0,0,0,0,0,0,0,0,0,0,0,0,0,0,0,0,0,0,0],"id":19,"left_children":[1,3,5,7,9,11,-1,13,15,-1,-1,17,19,21,23,25,27,29,31,-1,-1,33,-1,-1,-1,35,-1,37,-1,39,41,43,45,-1,-1,-1,47,-1,-1,-1,-1,49,51,53,-1,55,57,-1,-1,-1,-1,-1,-1,-1,-1,-1,-1,-1,-1],"loss_changes":[2.2608993E0,1.01712E0,6.9245887E-1,1.2714924E0,1.155473E-1,1.0117297E0,0E0,4.3924785E-1,1.7304409E0,0E0,0E0,1.1706864E0,7.487312E-2,8.7316656E-1,6.0680985E-2,4.7184363E-1,7.330134E-1,1.3785386E-1,8.7090135E-1,0E0,0E0,7.92673E-1,0E0,0E0,0E0,6.944905E-1,0E0,5.865557E-1,0E0,6.3852906E-2,3.0456346E-1,1.0320593E0,2.1340861E0,0E0,0E0,0E0,1.2785484E0,0E0,0E0,0E0,0E0,1.870747E0,9.0198404E-1,1.5988263E0,0E0,5.5878836E-1,2.7315664E-1,0E0,0E0,0E0,0E0,0E0,0E0,0E0,0E0,0E0,0E0,0E0,0E0],"parents":[2147483647,0,0,1,1,2,2,3,3,4,4,5,5,7,7,8,8,11,11,12,12,13,13,14,14,15,15,16,16,17,17,18,18,21,21,25,25,27,27,29,29,30,30,31,31,32,32,36,36,41,41,42,42,43,43,45,45,46,46],"right_children":[2,4,6,8,10,12,-1,14,16,-1,-1,18,20,22,24,26,28,30,32,-1,-1,34,-1,-1,-1,36,-1,38,-1,40,42,44,46,-1,-1,-1,48,-1,-1,-1,-1,50,52,54,-1,56,58,-1,-1,-1,-1,-1,-1,-1,-1,-1,-1,-1,-1],"split_conditions":[-1.0009907E0,1.4103786E0,1.4103786E0,-3.3091024E-1,1.8120022E0,8.1707853E-1,-6.5157086E-2,-4.468647E-1,2.3191088E-1,7.704515E-2,2.1150013E-2,-4.468647E-1,8.826966E-3,-5.60508E-1,-6.875645E-1,8.826966E-3,1.7221814E0,8.8899165E-1,2.3191088E-1,4.7345545E-2,8.65583E-3,-1.9216065E-1,5.894155E-2,7.777708E-2,1.8690294E-2,-4.468647E-1,-1.6725615E-2,1.2828527E-1,5.741782E-3,-1.9216065E-1,-1.9216065E-1,-2.5437763E-1,-3.3091024E-1,2.7071614E-2,-4.9429636E-2,6.623344E-2,-1.9216065E-1,-1.0718192E-2,-8.9496724E-2,-8.044286E-2,-2.6225377E-2,2.3191088E-1,5.576326E-1,1.7221814E0,8.1531964E-2,-6.875645E-1,6.649427E-1,-4.707299E-2,5.363045E-2,4.778738E-2,-6.881758E-2,-7.783909E-2,1.4829858E-2,-4.266661E-2,4.803877E-2,-6.3818614E-3,7.209869E-2,-9.230489E-2,-2.9215097E-2],"split_indices":[7,4,4,4,4,4,0,0,5,0,0,0,6,4,4,6,3,6,5,0,0,1,0,0,0,0,0,4,0,1,1,4,4,0,0,0,1,0,0,0,0,5,4,3,0,4,2,0,0,0,0,0,0,0,0,0,0,0,0],"split_type":[0,0,0,0,0,0,0,0,0,0,0,0,0,0,0,0,0,0,0,0,0,0,0,0,0,0,0,0,0,0,0,0,0,0,0,0,0,0,0,0,0,0,0,0,0,0,0,0,0,0,0,0,0,0,0,0,0,0,0],"sum_hessian":[5.3693466E1,2.4971048E1,2.872242E1,2.127964E1,3.6914074E0,2.6594296E1,2.128125E0,8.120023E0,1.3159618E1,2.1164002E0,1.5750072E0,2.3910553E1,2.6837418E0,5.331085E0,2.7889373E0,7.1972156E0,5.9624023E0,1.0069108E1,1.3841446E1,1.3539411E0,1.3298008E0,3.5134559E0,1.8176293E0,1.7412627E0,1.0476747E0,5.539261E0,1.6579548E0,4.0908484E0,1.8715539E0,3.334726E0,6.7343817E0,6.9306707E0,6.910775E0,1.794965E0,1.7184907E0,2.4813E0,3.0579607E0,1.742981E0,2.3478677E0,1.4867288E0,1.8479973E0,3.564747E0,3.1696346E0,5.79791E0,1.1327602E0,2.4528396E0,4.4579353E0,1.6658502E0,1.3921106E0,2.0535069E0,1.5112401E0,1.9710766E0,1.1985579E0,3.1187663E0,2.6791441E0,1.3196672E0,1.1331725E0,1.3280988E0,3.1298368E0],"tree_param":{"num_deleted":"0","num_feature":"8","num_nodes":"59","size_leaf_vector":"1"}},{"base_weights":[-1.0436356E-2,1.9455361E-1,-1.89358E-1,8.306664E-2,5.279354E-1,-1.3364469E-1,-6.212469E-2,2.6571888E-1,-3.189837E-1,8.507826E-2,6.615351E-2,-3.3445495E-1,3.197994E-2,4.2205215E-1,4.223407E-2,-7.4275976E-1,1.7962097E-1,3.9691593E-2,-2.2190662E-2,-4.3608588E-1,2.2292815E-2,4.8251193E-2,-4.5721408E-2,7.06404E-2,1.729671E-1,-2.3801333E-1,3.5653186E-1,-2.2280417E-2,-1.0718191E-1,9.882749E-2,-6.0867555E-2,-6.2367076E-1,-2.6890007E-1,-2.5563684E-1,6.260492E-2,-1.8936351E-2,3.6826771E-1,1.0865882E-2,-5.6488592E-2,6.444383E-2,-1.3642228E-3,-6.0065757E-3,-8.067704E-1,-6.98277E-2,1.1646567E-1,2.2467751E-2,-5.7388145E-2,-2.6803842E-1,3.3007562E-1,4.5232467E-2,1.1859934E-2,-2.2643644E-2,-9.7402446E-2,7.0391096E-2,-4.9039163E-2,1.8005507E-2,-4.7044136E-2,6.50283E-2,-1.189025E-2],"categories":[],"categories_nodes":[],"categories_segments":[],"categories_sizes":[],"default_left":[0,0,0,0,0,0,0,0,0,0,0,0,0,0,0,0,0,0,0,0,0,0,0,0,0,0,0,0,0,0,0,0,0,0,0,0,0,0,0,0,0,0,0,0,0,0,0,0,0,0,0,0,0,0,0,0,0,0,0],"id":20,"left_children":[1,3,5,7,9,11,-1,13,15,-1,17,19,21,23,25,27,29,-1,-1,31,-1,-1,33,-1,35,37,39,-1,-1,-1,-1,41,43,45,47,-1,49,-1,-1,-1,-1,-1,51,-1,53,-1,-1,55,57,-1,-1,-1,-1,-1,-1,-1,-1,-1,-1],"loss_changes":[2.0070748E0,9.0498614E-1,6.1933553E-1,1.5767978E0,8.696717E-1,9.12969E-1,0E0,4.8934734E-1,1.5705271E0,0E0,4.3488437E-1,7.9675996E-1,5.744527E-1,4.7490704E-1,7.090121E-1,4.2356157E-1,3.1068013E0,0E0,0E0,1.7046452E-1,0E0,0E0,3.4281024E-1,0E0,4.8143902E-1,5.5381787E-1,4.074339E-1,0E0,0E0,0E0,0E0,3.97709E-1,1.315616E0,9.067911E-1,9.978814E-1,0E0,3.2817185E-2,0E0,0E0,0E0,0E0,0E0,8.838773E-2,0E0,2.052178E0,0E0,0E0,5.518186E-1,9.589982E-1,0E0,0E0,0E0,0E0,0E0,0E0,0E0,0E0,0E0,0E0],"parents":[2147483647,0,0,1,1,2,2,3,3,4,4,5,5,7,7,8,8,10,10,11,11,12,12,13,13,14,14,15,15,16,16,19,19,22,22,24,24,25,25,26,26,31,31,32,32,33,33,34,34,36,36,42,42,44,44,47,47,48,48],"right_children":[2,4,6,8,10,12,-1,14,16,-1,18,20,22,24,26,28,30,-1,-1,32,-1,-1,34,-1,36,38,40,-1,-1,-1,-1,42,44,46,48,-1,50,-1,-1,-1,-1,-1,52,-1,54,-1,-1,56,58,-1,-1,-1,-1,-1,-1,-1,-1,-1,-1],"split_conditions":[-1.0009907E0,1.0466763E0,1.4103786E0,1.2828527E-1,2.3191088E-1,-4.468647E-1,-6.212469E-2,-1.9216065E-1,-1.9216065E-1,8.507826E-2,-1.9216065E-1,6.7295444E-1,-1.2493012E0,-6.875645E-1,-4.468647E-1,-4.468647E-1,8.826966E-3,3.9691593E-2,-2.2190662E-2,4.6064627E-1,2.2292815E-2,4.8251193E-2,-6.3704056E-1,7.06404E-2,-3.3091024E-1,6.4805084E-1,-3.3091024E-1,-2.2280417E-2,-1.0718191E-1,9.882749E-2,-6.0867555E-2,6.4805084E-1,-5.60508E-1,6.4805084E-1,6.649427E-1,-1.8936351E-2,-4.468647E-1,1.0865882E-2,-5.6488592E-2,6.444383E-2,-1.3642228E-3,-6.0065757E-3,4.344156E-1,-6.98277E-2,2.3191088E-1,2.2467751E-2,-5.7388145E-2,-3.3091024E-1,8.8899165E-1,4.5232467E-2,1.1859934E-2,-2.2643644E-2,-9.7402446E-2,7.0391096E-2,-4.9039163E-2,1.8005507E-2,-4.7044136E-2,6.50283E-2,-1.189025E-2],"split_indices":[7,4,4,4,5,0,0,1,1,0,1,4,4,4,0,0,6,0,0,7,0,0,4,0,4,2,4,0,0,0,0,2,4,2,2,0,0,0,0,0,0,0,4,0,5,0,0,4,6,0,0,0,0,0,0,0,0,0,0],"split_type":[0,0,0,0,0,0,0,0,0,0,0,0,0,0,0,0,0,0,0,0,0,0,0,0,0,0,0,0,0,0,0,0,0,0,0,0,0,0,0,0,0,0,0,0,0,0,0,0,0,0,0,0,0,0,0,0,0,0,0],"sum_hessian":[5.2718323E1,2.4528606E1,2.8189714E1,1.9317696E1,5.2109118E0,2.612859E1,2.061125E0,1.3516304E1,5.8013916E0,2.5710282E0,2.6398833E0,1.1349104E1,1.4779487E1,7.4301915E0,6.086112E0,2.8713152E0,2.9300764E0,1.0529503E0,1.5869331E0,9.782942E0,1.5661621E0,1.4076648E0,1.3371821E1,2.6121755E0,4.818016E0,3.345643E0,2.740469E0,1.7628626E0,1.1084527E0,1.3211372E0,1.6089392E0,3.3235106E0,6.4594307E0,4.088746E0,9.283075E0,1.6980731E0,3.119943E0,1.9476254E0,1.3980176E0,1.1247658E0,1.6157032E0,1.14061E0,2.1829007E0,2.6711898E0,3.7882411E0,1.7466319E0,2.3421142E0,4.150351E0,5.132725E0,1.7268538E0,1.3930892E0,1.0149837E0,1.1679169E0,1.8436434E0,1.9445977E0,1.325743E0,2.8246078E0,2.7342901E0,2.3984344E0],"tree_param":{"num_deleted":"0","num_feature":"8","num_nodes":"59","size_leaf_vector":"1"}},{"base_weights":[-1.0170034E-2,1.8369891E-1,-1.7911367E-1,9.3261786E-2,5.770677E-1,-1.2620236E-1,-5.9244014E-2,3.60992E-1,-8.46037E-2,7.495322E-2,2.0215096E-2,-1.9039917E-1,3.3158964E-1,-4.11198E-3,4.6637258E-1,2.0882204E-1,-4.2099428E-1,-4.1746557E-1,-1.2619615E-2,4.5209873E-2,6.8859356E-3,6.2268157E-2,2.1958493E-1,-2.3203293E-2,4.2446432E-1,-8.055669E-2,-1.3215594E-1,-5.948171E-1,-2.5541654E-1,2.1192437E-1,-2.3541123E-1,-1.7653272E-2,5.5114634E-2,1.8250814E-1,-2.8137192E-2,5.7337474E-2,6.931159E-3,-4.5987946E-1,2.9996304E-2,-5.6907777E-3,-7.7102655E-1,-6.676414E-2,1.1095668E-1,-1.6367633E-3,7.880552E-2,3.8694018E-1,-5.873079E-1,2.8017059E-2,6.798567E-4,-8.494753E-2,2.0330314E-2,-2.163267E-2,-9.2925616E-2,6.632901E-2,-4.6780445E-2,-4.0632397E-2,4.552332E-2,-4.937503E-3,6.781474E-2,-8.647687E-2,-2.8982943E-2],"categories":[],"categories_nodes":[],"categories_segments":[],"categories_sizes":[],"default_left":[0,0,0,0,0,0,0,0,0,0,0,0,0,0,0,0,0,0,0,0,0,0,0,0,0,0,0,0,0,0,0,0,0,0,0,0,0,0,0,0,0,0,0,0,0,0,0,0,0,0,0,0,0,0,0,0,0,0,0,0,0],"id":21,"left_children":[1,3,5,7,9,11,-1,13,15,-1,-1,17,19,-1,21,23,25,27,29,-1,-1,-1,31,33,35,-1,37,39,41,43,45,-1,-1,47,-1,-1,-1,49,-1,-1,51,-1,53,55,-1,57,59,-1,-1,-1,-1,-1,-1,-1,-1,-1,-1,-1,-1,-1,-1],"loss_changes":[1.766881E0,8.407443E-1,5.5497855E-1,1.060944E0,1.3994777E-1,8.507024E-1,0E0,3.9321828E-1,1.4511427E0,0E0,0E0,9.6911716E-1,8.476657E-2,0E0,1.3619089E-1,4.123789E-1,6.451032E-1,1.5180588E-1,7.787414E-1,0E0,0E0,0E0,6.6050327E-1,3.0751944E-1,1.8352014E-1,0E0,8.545487E-1,3.6307085E-1,1.1728084E0,9.5882636E-1,1.9326193E0,0E0,0E0,5.457011E-2,0E0,0E0,0E0,1.0182215E0,0E0,0E0,7.583046E-2,0E0,1.8156766E0,1.4192321E0,0E0,4.6744573E-1,1.9271886E-1,0E0,0E0,0E0,0E0,0E0,0E0,0E0,0E0,0E0,0E0,0E0,0E0,0E0,0E0],"parents":[2147483647,0,0,1,1,2,2,3,3,4,4,5,5,7,7,8,8,11,11,12,12,14,14,15,15,16,16,17,17,18,18,22,22,23,23,24,24,26,26,27,27,28,28,29,29,30,30,33,33,37,37,40,40,42,42,43,43,45,45,46,46],"right_children":[2,4,6,8,10,12,-1,14,16,-1,-1,18,20,-1,22,24,26,28,30,-1,-1,-1,32,34,36,-1,38,40,42,44,46,-1,-1,48,-1,-1,-1,50,-1,-1,52,-1,54,56,-1,58,60,-1,-1,-1,-1,-1,-1,-1,-1,-1,-1,-1,-1,-1,-1],"split_conditions":[-1.0009907E0,1.4103786E0,1.4103786E0,-3.3091024E-1,8.826966E-3,8.1707853E-1,-5.9244014E-2,-1.1727687E0,2.3191088E-1,7.495322E-2,2.0215096E-2,-4.468647E-1,8.826966E-3,-4.11198E-3,-6.875645E-1,2.6017013E-1,6.4805084E-1,4.6064627E-1,2.3191088E-1,4.5209873E-2,6.8859356E-3,6.2268157E-2,-1.9216065E-1,-1.9216065E-1,-4.468647E-1,-8.055669E-2,-1.9216065E-1,6.4805084E-1,-5.60508E-1,-2.5437763E-1,-3.3091024E-1,-1.7653272E-2,5.5114634E-2,-4.468647E-1,-2.8137192E-2,5.7337474E-2,6.931159E-3,8.826966E-3,2.9996304E-2,-5.6907777E-3,4.344156E-1,-6.676414E-2,2.3191088E-1,1.7221814E0,7.880552E-2,-6.875645E-1,6.649427E-1,2.8017059E-2,6.798567E-4,-8.494753E-2,2.0330314E-2,-2.163267E-2,-9.2925616E-2,6.632901E-2,-4.6780445E-2,-4.0632397E-2,4.552332E-2,-4.937503E-3,6.781474E-2,-8.647687E-2,-2.8982943E-2],"split_indices":[7,4,4,4,6,4,0,4,5,0,0,0,6,0,4,4,2,7,5,0,0,0,1,1,0,0,1,2,4,4,4,0,0,0,0,0,0,6,0,0,4,0,5,3,0,4,2,0,0,0,0,0,0,0,0,0,0,0,0,0,0],"split_type":[0,0,0,0,0,0,0,0,0,0,0,0,0,0,0,0,0,0,0,0,0,0,0,0,0,0,0,0,0,0,0,0,0,0,0,0,0,0,0,0,0,0,0,0,0,0,0,0,0,0,0,0,0,0,0,0,0,0,0,0,0],"sum_hessian":[5.1941162E1,2.4145727E1,2.7795437E1,2.063804E1,3.507687E0,2.5798248E1,1.9971871E0,7.8269796E0,1.2811061E1,1.7181355E0,1.7895516E0,2.3137709E1,2.6605408E0,1.7518928E0,6.0750866E0,7.045052E0,5.766009E0,9.568394E0,1.3569314E1,1.3298116E0,1.3307292E0,2.7868314E0,3.2882552E0,3.8234842E0,3.2215679E0,1.7058169E0,4.060192E0,3.2933974E0,6.2749963E0,6.7823725E0,6.786942E0,1.7113138E0,1.5769415E0,2.2910323E0,1.532452E0,1.8369257E0,1.3846421E0,2.272478E0,1.7877138E0,1.1390891E0,2.1543083E0,2.5657942E0,3.7092023E0,5.675666E0,1.1067064E0,2.4154613E0,4.3714805E0,1.0904381E0,1.200594E0,1.2545615E0,1.0179166E0,1.0035098E0,1.1507986E0,1.8232013E0,1.886001E0,3.068383E0,2.607283E0,1.2992479E0,1.1162134E0,1.2751447E0,3.096336E0],"tree_param":{"num_deleted":"0","num_feature":"8","num_nodes":"61","size_leaf_vector":"1"}},{"base_weights":[-9.421547E-3,1.7353202E-1,-1.6907175E-1,6.976433E-2,4.9433285E-1,-1.1864093E-1,-5.650376E-2,2.4019736E-1,-3.063392E-1,8.1194095E-2,5.9197456E-2,-1.8000557E-1,3.1437683E-1,3.9131585E-1,2.7867794E-2,-7.075431E-1,1.7276001E-1,3.575955E-2,-2.013721E-2,-3.9993644E-1,-9.355701E-3,4.2993844E-2,6.4923577E-3,6.514881E-2,1.6809715E-1,-2.4601424E-1,3.440199E-1,-2.2089666E-2,-1.0050272E-1,9.2976384E-2,-5.7348218E-2,-5.6793433E-1,-2.427754E-1,2.045975E-1,-2.2024159E-1,-1.6460588E-2,3.497319E-1,-4.6756506E-2,1.6075637E-2,6.154442E-2,-1.1572286E-4,-5.391576E-3,-7.3792264E-2,-6.383184E-2,1.0560228E-1,-7.6026365E-4,7.5810276E-2,3.6718944E-1,-5.5512017E-1,4.3286007E-2,1.1003952E-2,6.254237E-2,-4.462273E-2,3.9056484E-2,-4.272513E-2,-4.6569714E-3,6.440439E-2,-1.7980155E-2,-7.379081E-2],"categories":[],"categories_nodes":[],"categories_segments":[],"categories_sizes":[],"default_left":[0,0,0,0,0,0,0,0,0,0,0,0,0,0,0,0,0,0,0,0,0,0,0,0,0,0,0,0,0,0,0,0,0,0,0,0,0,0,0,0,0,0,0,0,0,0,0,0,0,0,0,0,0,0,0,0,0,0,0],"id":22,"left_children":[1,3,5,7,9,11,-1,13,15,-1,17,19,21,23,25,27,29,-1,-1,31,33,-1,-1,-1,35,37,39,-1,-1,-1,-1,41,43,45,47,-1,49,-1,-1,-1,-1,-1,-1,-1,51,53,-1,55,57,-1,-1,-1,-1,-1,-1,-1,-1,-1,-1],"loss_changes":[1.5519569E0,7.905813E-1,4.9896026E-1,1.3486568E0,7.664131E-1,7.58292E-1,0E0,4.463088E-1,1.3990512E0,0E0,3.492205E-1,8.8821286E-1,7.707319E-2,3.69483E-1,6.9087183E-1,3.297732E-1,2.6974535E0,0E0,0E0,1.356411E-1,6.9506025E-1,0E0,0E0,0E0,4.072745E-1,4.6579343E-1,3.4425727E-1,0E0,0E0,0E0,0E0,3.324871E-1,1.0456473E0,8.7233764E-1,1.7257724E0,0E0,3.3331245E-2,0E0,0E0,0E0,0E0,0E0,0E0,0E0,1.607962E0,1.2672198E0,0E0,4.207216E-1,2.3268521E-1,0E0,0E0,0E0,0E0,0E0,0E0,0E0,0E0,0E0,0E0],"parents":[2147483647,0,0,1,1,2,2,3,3,4,4,5,5,7,7,8,8,10,10,11,11,12,12,13,13,14,14,15,15,16,16,19,19,20,20,24,24,25,25,26,26,31,31,32,32,33,33,34,34,36,36,44,44,45,45,47,47,48,48],"right_children":[2,4,6,8,10,12,-1,14,16,-1,18,20,22,24,26,28,30,-1,-1,32,34,-1,-1,-1,36,38,40,-1,-1,-1,-1,42,44,46,48,-1,50,-1,-1,-1,-1,-1,-1,-1,52,54,-1,56,58,-1,-1,-1,-1,-1,-1,-1,-1,-1,-1],"split_conditions":[-1.0009907E0,1.0466763E0,1.4103786E0,1.2828527E-1,2.3191088E-1,8.1707853E-1,-5.650376E-2,-1.9216065E-1,-1.9216065E-1,8.1194095E-2,-1.9216065E-1,-4.468647E-1,8.826966E-3,-6.875645E-1,-4.468647E-1,-4.468647E-1,8.826966E-3,3.575955E-2,-2.013721E-2,4.6064627E-1,2.3191088E-1,4.2993844E-2,6.4923577E-3,6.514881E-2,-3.3091024E-1,2.3191088E-1,-3.3091024E-1,-2.2089666E-2,-1.0050272E-1,9.2976384E-2,-5.7348218E-2,6.4805084E-1,-5.60508E-1,-2.5437763E-1,-3.3091024E-1,-1.6460588E-2,-4.468647E-1,-4.6756506E-2,1.6075637E-2,6.154442E-2,-1.1572286E-4,-5.391576E-3,-7.3792264E-2,-6.383184E-2,2.3191088E-1,-8.666383E-1,7.5810276E-2,-6.875645E-1,8.826966E-3,4.3286007E-2,1.1003952E-2,6.254237E-2,-4.462273E-2,3.9056484E-2,-4.272513E-2,-4.6569714E-3,6.440439E-2,-1.7980155E-2,-7.379081E-2],"split_indices":[7,4,4,4,5,4,0,1,1,0,1,0,6,4,0,0,6,0,0,7,5,0,0,0,4,5,4,0,0,0,0,2,4,4,4,0,0,0,0,0,0,0,0,0,5,4,0,4,6,0,0,0,0,0,0,0,0,0,0],"split_type":[0,0,0,0,0,0,0,0,0,0,0,0,0,0,0,0,0,0,0,0,0,0,0,0,0,0,0,0,0,0,0,0,0,0,0,0,0,0,0,0,0,0,0,0,0,0,0,0,0,0,0,0,0,0,0,0,0,0,0],"sum_hessian":[5.1129128E1,2.3785185E1,2.7343945E1,1.889182E1,4.8933644E0,2.5407616E1,1.9363286E0,1.3249226E1,5.6425943E0,2.3281112E0,2.5652535E0,2.27657E1,2.641916E0,7.2478476E0,6.0013785E0,2.8114393E0,2.831155E0,1.0222435E0,1.54301E0,9.359593E0,1.3406106E1,1.3110409E0,1.3308752E0,2.4609187E0,4.7869287E0,3.3345294E0,2.666849E0,1.727696E0,1.0837432E0,1.2833599E0,1.5477953E0,3.2605286E0,6.099065E0,6.669459E0,6.736647E0,1.7235785E0,3.0633502E0,2.0619926E0,1.2725369E0,1.0546004E0,1.6122485E0,1.137643E0,2.1228857E0,2.466442E0,3.6326227E0,5.593006E0,1.076453E0,2.4109561E0,4.3256907E0,1.6761451E0,1.3872051E0,1.8018876E0,1.8307351E0,2.9606817E0,2.6323245E0,1.299958E0,1.1109982E0,2.0664039E0,2.259287E0],"tree_param":{"num_deleted":"0","num_feature":"8","num_nodes":"59","size_leaf_vector":"1"}},{"base_weights":[-7.5682164E-3,1.6487479E-1,-1.5816416E-1,6.609486E-2,4.7477144E-1,-1.099653E-1,-5.389433E-2,2.2823459E-1,-2.920812E-1,7.889875E-2,5.799392E-2,-1.6846392E-1,2.9815406E-1,3.694832E-1,2.9867101E-2,1.05691485E-1,-7.581017E-2,3.4121912E-2,-1.899193E-2,-3.808171E-1,-5.774962E-3,4.0902246E-2,6.1213337E-3,6.2156092E-2,1.5823355E-1,-2.2874239E-1,3.3062804E-1,-4.854414E-1,8.895891E-2,-5.473256E-1,-2.3158936E-1,1.955823E-1,-2.0436652E-1,-1.5351406E-2,3.3009323E-1,1.0582747E-2,-5.383615E-2,5.970604E-2,-1.0857998E-4,2.1372247E-2,-9.592759E-2,-7.3675506E-2,-1.8709723E-2,-1.597458E-2,-4.0844274E-1,-1.3012915E-3,7.302495E-2,3.486566E-1,-5.23178E-1,4.0886037E-2,1.0381115E-2,4.6683595E-2,-6.294488E-2,-7.1354195E-2,1.5549882E-2,-3.7937053E-2,4.2968377E-2,-4.3924223E-3,6.121671E-2,-8.1321925E-2,-2.348706E-2],"categories":[],"categories_nodes":[],"categories_segments":[],"categories_sizes":[],"default_left":[0,0,0,0,0,0,0,0,0,0,0,0,0,0,0,0,0,0,0,0,0,0,0,0,0,0,0,0,0,0,0,0,0,0,0,0,0,0,0,0,0,0,0,0,0,0,0,0,0,0,0,0,0,0,0,0,0,0,0,0,0],"id":23,"left_children":[1,3,5,7,9,11,-1,13,15,-1,17,19,21,23,25,27,-1,-1,-1,29,31,-1,-1,-1,33,35,37,39,-1,41,43,45,47,-1,49,-1,-1,-1,-1,-1,-1,-1,-1,51,53,55,-1,57,59,-1,-1,-1,-1,-1,-1,-1,-1,-1,-1,-1,-1],"loss_changes":[1.3585775E0,7.158463E-1,4.5280236E-1,1.2090831E0,7.0572305E-1,6.714957E-1,0E0,3.841166E-1,1.2977612E0,0E0,3.1378314E-1,8.061759E-1,7.0145726E-2,3.3561933E-1,6.164654E-1,2.4806988E0,0E0,0E0,0E0,1.2507129E-1,6.1036295E-1,0E0,0E0,0E0,3.6009753E-1,5.0549245E-1,3.2090515E-1,1.254412E0,0E0,1.3896585E-1,2.6338392E-1,8.0032134E-1,1.53478E0,0E0,2.9569805E-2,0E0,0E0,0E0,0E0,0E0,0E0,0E0,0E0,1.5468249E0,7.730256E-1,1.2299939E0,0E0,3.7913293E-1,2.4929821E-1,0E0,0E0,0E0,0E0,0E0,0E0,0E0,0E0,0E0,0E0,0E0,0E0],"parents":[2147483647,0,0,1,1,2,2,3,3,4,4,5,5,7,7,8,8,10,10,11,11,12,12,13,13,14,14,15,15,19,19,20,20,24,24,25,25,26,26,27,27,29,29,30,30,31,31,32,32,34,34,43,43,44,44,45,45,47,47,48,48],"right_children":[2,4,6,8,10,12,-1,14,16,-1,18,20,22,24,26,28,-1,-1,-1,30,32,-1,-1,-1,34,36,38,40,-1,42,44,46,48,-1,50,-1,-1,-1,-1,-1,-1,-1,-1,52,54,56,-1,58,60,-1,-1,-1,-1,-1,-1,-1,-1,-1,-1,-1,-1],"split_conditions":[-1.0009907E0,1.0466763E0,1.4103786E0,1.2828527E-1,2.3191088E-1,8.1707853E-1,-5.389433E-2,-1.9216065E-1,8.826966E-3,7.889875E-2,-1.9216065E-1,-4.468647E-1,8.826966E-3,-6.875645E-1,-4.468647E-1,-1.9216065E-1,-7.581017E-2,3.4121912E-2,-1.899193E-2,8.8899165E-1,2.3191088E-1,4.0902246E-2,6.1213337E-3,6.2156092E-2,-3.3091024E-1,6.4805084E-1,-3.3091024E-1,-4.468647E-1,8.895891E-2,-1.9216065E-1,-1.9216065E-1,-2.5437763E-1,-3.3091024E-1,-1.5351406E-2,-4.468647E-1,1.0582747E-2,-5.383615E-2,5.970604E-2,-1.0857998E-4,2.1372247E-2,-9.592759E-2,-7.3675506E-2,-1.8709723E-2,2.3191088E-1,5.576326E-1,1.7221814E0,7.302495E-2,-6.875645E-1,6.649427E-1,4.0886037E-2,1.0381115E-2,4.6683595E-2,-6.294488E-2,-7.1354195E-2,1.5549882E-2,-3.7937053E-2,4.2968377E-2,-4.3924223E-3,6.121671E-2,-8.1321925E-2,-2.348706E-2],"split_indices":[7,4,4,4,5,4,0,1,6,0,1,0,6,4,0,1,0,0,0,6,5,0,0,0,4,2,4,0,0,1,1,4,4,0,0,0,0,0,0,0,0,0,0,5,4,3,0,4,2,0,0,0,0,0,0,0,0,0,0,0,0],"split_type":[0,0,0,0,0,0,0,0,0,0,0,0,0,0,0,0,0,0,0,0,0,0,0,0,0,0,0,0,0,0,0,0,0,0,0,0,0,0,0,0,0,0,0,0,0,0,0,0,0,0,0,0,0,0,0,0,0,0,0,0,0],"sum_hessian":[5.0310757E1,2.3409924E1,2.6900833E1,1.8671606E1,4.7383165E0,2.502231E1,1.8785231E0,1.3102935E1,5.568671E0,2.1923776E0,2.545939E0,2.2398933E1,2.6233776E0,7.149486E0,5.953449E0,3.4214718E0,2.1471994E0,1.0126665E0,1.5332725E0,9.134789E0,1.3264144E1,1.292385E0,1.3309925E0,2.3741636E0,4.7753224E0,3.3297853E0,2.6236637E0,2.1676173E0,1.2538546E0,3.056557E0,6.078233E0,6.5937343E0,6.670409E0,1.7349429E0,3.0403795E0,1.9167616E0,1.4130236E0,1.0113899E0,1.6122738E0,1.097362E0,1.0702553E0,1.3181511E0,1.7384058E0,3.230285E0,2.847948E0,5.54824E0,1.0454942E0,2.4049952E0,4.265414E0,1.6567988E0,1.3835807E0,1.9414067E0,1.2888781E0,1.6759582E0,1.1719899E0,3.0193563E0,2.5288837E0,1.3006234E0,1.1043717E0,1.218709E0,3.0467052E0],"tree_param":{"num_deleted":"0","num_feature":"8","num_nodes":"61","size_leaf_vector":"1"}},{"base_weights":[-6.8186885E-3,1.5724175E-1,-1.5027863E-1,7.609124E-2,5.195393E-1,-1.0976657E-4,-2.51689E-1,-1.8803638E-1,2.2564436E-1,6.754572E-2,1.14088645E-2,-1.922296E-1,6.4619005E-2,-5.357188E-1,-9.102112E-2,2.5212047E-1,-6.381622E-1,8.169818E-2,5.5123365E-1,-4.6805775E-1,1.7689882E-1,-8.8638656E-2,-9.4845235E-2,3.946327E-1,-4.0402654E-1,4.2326215E-1,-9.098352E-3,-6.212477E-3,-9.328347E-2,-8.757089E-2,2.8673893E-1,8.99468E-2,-2.2171257E-2,9.75341E-3,-6.264683E-1,5.600614E-2,-2.9337779E-2,4.3440726E-2,-5.0265618E-2,-5.6616586E-2,9.303779E-2,-4.0144366E-3,-5.838835E-1,7.31082E-3,6.229747E-2,2.4497917E-1,-6.901481E-2,-2.4298502E-2,6.4090975E-2,-1.8910136E-2,-8.334225E-2,-9.421817E-2,1.4610258E-2,8.022027E-2,-4.1861676E-2],"categories":[],"categories_nodes":[],"categories_segments":[],"categories_sizes":[],"default_left":[0,0,0,0,0,0,0,0,0,0,0,0,0,0,0,0,0,0,0,0,0,0,0,0,0,0,0,0,0,0,0,0,0,0,0,0,0,0,0,0,0,0,0,0,0,0,0,0,0,0,0,0,0,0,0],"id":24,"left_children":[1,3,5,7,9,11,13,15,17,-1,-1,19,-1,21,23,25,27,29,31,33,35,-1,37,39,41,43,-1,-1,-1,45,47,-1,-1,-1,49,-1,-1,-1,-1,-1,-1,-1,51,-1,-1,53,-1,-1,-1,-1,-1,-1,-1,-1,-1],"loss_changes":[1.2109065E0,6.66715E-1,4.1759455E-1,8.6394125E-1,1.8998694E-1,1.6210103E0,6.982163E-1,1.7585849E0,5.986023E-1,0E0,0E0,1.1073867E0,0E0,7.9858744E-1,1.93182E0,3.2000855E-1,6.6685665E-1,3.9637026E-1,1.2858328E0,6.0169744E-1,1.0705713E0,0E0,1.0059707E0,3.1392624E0,4.729128E-1,1.9050133E-1,0E0,0E0,0E0,1.4967706E0,1.1071718E0,0E0,0E0,0E0,2.8123868E-1,0E0,0E0,0E0,0E0,0E0,0E0,0E0,1.445835E0,0E0,0E0,2.1874352E0,0E0,0E0,0E0,0E0,0E0,0E0,0E0,0E0,0E0],"parents":[2147483647,0,0,1,1,2,2,3,3,4,4,5,5,6,6,7,7,8,8,11,11,13,13,14,14,15,15,16,16,17,17,18,18,19,19,20,20,22,22,23,23,24,24,25,25,29,29,30,30,34,34,42,42,45,45],"right_children":[2,4,6,8,10,12,14,16,18,-1,-1,20,-1,22,24,26,28,30,32,34,36,-1,38,40,42,44,-1,-1,-1,46,48,-1,-1,-1,50,-1,-1,-1,-1,-1,-1,-1,52,-1,-1,54,-1,-1,-1,-1,-1,-1,-1,-1,-1],"split_conditions":[-1.0009907E0,1.4103786E0,-3.3091024E-1,6.4805084E-1,1.8120022E0,-5.60508E-1,6.649427E-1,8.826966E-3,8.826966E-3,6.754572E-2,1.14088645E-2,1.7221814E0,6.4619005E-2,5.576326E-1,2.3191088E-1,4.344156E-1,-3.3091024E-1,-1.9216065E-1,1.2828527E-1,1.0405477E0,-1.1727687E0,-8.8638656E-2,6.7295444E-1,4.6064627E-1,8.826966E-3,-2.5437763E-1,-9.098352E-3,-6.212477E-3,-9.328347E-2,-4.468647E-1,-4.468647E-1,8.99468E-2,-2.2171257E-2,9.75341E-3,-1.9216065E-1,5.600614E-2,-2.9337779E-2,4.3440726E-2,-5.0265618E-2,-5.6616586E-2,9.303779E-2,-4.0144366E-3,-1.9216065E-1,7.31082E-3,6.229747E-2,2.3191088E-1,-6.901481E-2,-2.4298502E-2,6.4090975E-2,-1.8910136E-2,-8.334225E-2,-9.421817E-2,1.4610258E-2,8.022027E-2,-4.1861676E-2],"split_indices":[7,4,4,2,4,4,2,6,6,0,0,3,0,4,5,4,4,1,4,7,4,0,4,7,6,4,0,0,0,0,0,0,0,0,1,0,0,0,0,0,0,0,1,0,0,5,0,0,0,0,0,0,0,0,0],"split_type":[0,0,0,0,0,0,0,0,0,0,0,0,0,0,0,0,0,0,0,0,0,0,0,0,0,0,0,0,0,0,0,0,0,0,0,0,0,0,0,0,0,0,0,0,0,0,0,0,0,0,0,0,0,0,0],"sum_hessian":[4.9444912E1,2.3021505E1,2.6423407E1,1.9797186E1,3.2243192E0,1.1054678E1,1.5368728E1,7.064017E0,1.2733169E1,1.8477982E0,1.3765211E0,9.06313E0,1.9915477E0,4.7092886E0,1.0659439E1,3.7939653E0,3.2700515E0,9.696968E0,3.0362003E0,5.0337186E0,4.029412E0,2.0601425E0,2.649146E0,4.0753736E0,6.5840654E0,2.3754532E0,1.4185121E0,1.5164541E0,1.7535974E0,5.62567E0,4.071298E0,1.9803213E0,1.0558789E0,1.1854529E0,3.8482656E0,2.115152E0,1.9142601E0,1.1245284E0,1.5246176E0,1.438609E0,2.6367648E0,2.5824728E0,4.0015926E0,1.3589274E0,1.016526E0,4.007474E0,1.6181958E0,1.7571332E0,2.314165E0,1.8507383E0,1.9975272E0,2.489158E0,1.5124347E0,2.064791E0,1.9426832E0],"tree_param":{"num_deleted":"0","num_feature":"8","num_nodes":"55","size_leaf_vector":"1"}},